{
	"layers": [
		{
			"neurons": [
				{
					"weights": [
						-0.1289322972297668,
						0.1026296615600586,
						0.2191334515810013,
						0.1394831240177155,
						-0.1762253493070602,
						0.0136506138369441,
						-0.05389598384499549,
						0.04733455926179885,
						0.2222414314746857,
						-0.4458745419979095,
						-0.175964280962944,
						-0.1388896554708481,
						0.03984006494283676,
						0.1126846596598625,
						-0.1468875408172607,
						-0.05609974265098571,
						-0.02772631682455539,
						-0.1549001485109329,
						-0.2075287848711014,
						0.02956990152597427,
						-0.07937414944171905,
						-0.2706600725650787,
						-0.1145707592368126,
						-0.1917642056941986,
						0.07833979278802871,
						-0.1723590195178986,
						-0.06760364770889282,
						0.1459733545780182,
						-0.2554511725902557,
						-0.05272553861141204,
						-0.335153341293335,
						0.008042674511671066,
						0.3261224627494812,
						-0.2218325734138489,
						-0.3480158150196075
					]
				},
				{
					"weights": [
						-0.07752116024494171,
						0.06321683526039123,
						-0.02613116800785064,
						-0.1172788739204407,
						-0.1007509231567383,
						0.02229807712137699,
						-0.1497091501951218,
						-0.1598172783851624,
						-0.1685280799865723,
						-0.01381274871528148,
						-0.1632376909255981,
						-0.0347616896033287,
						-0.06633701920509338,
						-0.1225946545600891,
						-0.09900222718715667,
						-0.1034168899059296,
						-0.1995035409927368,
						0.1432902216911316,
						-0.1965244710445404,
						-0.1209922060370445,
						-0.1073696464300156,
						-0.2259785234928131,
						-0.0714738517999649,
						-0.1225036382675171,
						0.08420236408710479,
						0.07728983461856842,
						-0.1944900155067444,
						-0.0681106150150299,
						-0.006310851778835058,
						0.101843886077404,
						-0.002649290254339575,
						0.1645161509513855,
						0.03796659782528877,
						0.165059819817543,
						0.1894697248935699
					]
				},
				{
					"weights": [
						-0.1642394363880157,
						-0.003061180002987384,
						0.03372185304760932,
						0.06039733812212944,
						-0.1308305561542511,
						0.1968871355056763,
						-0.2392403334379196,
						-0.1779566407203674,
						-0.08802315592765808,
						-0.02771736495196819,
						0.08203484117984771,
						-0.1625349074602127,
						-0.1410324722528458,
						-0.1733283251523972,
						-0.06420397758483886,
						0.01417634170502424,
						-0.07061345875263214,
						0.05520199984312057,
						-0.1929721087217331,
						-0.1321780979633331,
						0.003683598712086677,
						-0.1122945174574852,
						-0.0255778394639492,
						-0.2247843593358994,
						0.03497556969523429,
						-0.1408904492855072,
						-0.02927301079034805,
						-0.1459126323461533,
						-0.1447968631982803,
						0.1333768516778946,
						-0.1482994109392166,
						0.1670926958322525,
						0.202014833688736,
						0.06554184108972549,
						-0.1832307279109955
					]
				},
				{
					"weights": [
						-0.1545791625976563,
						0.02545709908008575,
						-0.01328235771507024,
						0.09578494727611541,
						-0.148964136838913,
						0.04775656759738922,
						-0.2398412674665451,
						-0.2863693237304688,
						-0.2949553430080414,
						0.07456303387880325,
						0.1116202399134636,
						-0.1957142353057861,
						-0.329159140586853,
						-0.1493741869926453,
						0.08013752102851867,
						0.01344477199018001,
						-0.03161236643791198,
						0.02926559373736381,
						-0.09235206246376037,
						0.07665356993675231,
						-0.0900244116783142,
						-0.161133885383606,
						-0.2228405922651291,
						-0.03881558030843734,
						-0.00647736620157957,
						0.02141202799975872,
						-0.09259640425443649,
						-0.289564847946167,
						-0.08949264883995056,
						0.09144629538059234,
						0.05125681310892105,
						0.307626873254776,
						0.3366145193576813,
						0.1748341917991638,
						0.2684264183044434
					]
				},
				{
					"weights": [
						0.1725335717201233,
						-0.1146941035985947,
						-0.2287521511316299,
						-0.1983437985181808,
						-0.1085155680775642,
						-0.2390243411064148,
						0.1717029511928558,
						0.1227213963866234,
						0.04472261294722557,
						-0.004922195337712764,
						-0.2096958756446838,
						0.01081315800547599,
						0.1433150619268417,
						0.01807273179292678,
						-0.328123927116394,
						-0.1734720468521118,
						-0.2076614648103714,
						0.3441386818885803,
						-0.285958856344223,
						-0.2275485396385193,
						-0.08172180503606796,
						-0.2510543465614319,
						0.2060379683971405,
						-0.4010021090507507,
						-0.2764464914798737,
						-0.2118603736162186,
						-0.05823856964707374,
						-0.08635312318801879,
						0.1948750466108322,
						-0.1795349717140198,
						0.1599225997924805,
						-0.2382353842258453,
						-0.02667838148772716,
						0.1327329128980637,
						-0.04845126718282699
					]
				},
				{
					"weights": [
						-0.01781193725764751,
						-0.01716197468340396,
						0.219244047999382,
						0.008303697220981121,
						-0.131262794137001,
						-0.05352962389588356,
						-0.2737548053264618,
						-0.09257929772138595,
						-0.2913295924663544,
						0.007632918190211057,
						0.03882169350981712,
						-0.1695638746023178,
						0.01816868223249912,
						-0.1007776260375977,
						-0.02075902745127677,
						-0.08375173062086105,
						-0.2543879747390747,
						0.01906664855778217,
						-0.07999291270971298,
						-0.0404856838285923,
						0.1127603724598885,
						-0.08222991973161697,
						-0.1419484913349152,
						0.02937191538512706,
						0.142036959528923,
						0.03705969452857971,
						-0.1265339106321335,
						-0.1863311678171158,
						0.09908290207386016,
						-0.188987597823143,
						0.02012426033616066,
						0.3128986358642578,
						-0.004973208997398614,
						0.302903026342392,
						0.2968866527080536
					]
				},
				{
					"weights": [
						0.1392054110765457,
						0.09660849720239639,
						-0.03596472740173339,
						0.008685980923473834,
						-0.1555421203374863,
						0.08874826878309249,
						-0.1570578813552856,
						-0.1995577216148376,
						-0.1641361564397812,
						0.03785635158419609,
						0.03919724747538566,
						-0.2070688903331757,
						0.03719614446163177,
						-0.1678721457719803,
						-0.06905630975961685,
						0.1155886352062225,
						-0.2962913811206818,
						-0.06847824901342392,
						-0.1051785424351692,
						-0.1837395280599594,
						0.211370661854744,
						-0.2587490379810333,
						-0.03218813613057136,
						-0.118328720331192,
						-0.06112492084503173,
						0.1255907118320465,
						-0.22256238758564,
						-0.212549701333046,
						0.1627758592367172,
						0.05680298805236816,
						0.2447080165147781,
						0.01966849341988563,
						-0.119707889854908,
						0.3967756330966949,
						0.3147083520889282
					]
				},
				{
					"weights": [
						0.03697375208139419,
						-0.196869969367981,
						-0.1951604634523392,
						-0.2011390328407288,
						-0.1168412044644356,
						0.1210823506116867,
						0.03426503390073776,
						-0.2303323894739151,
						0.02703801728785038,
						-0.07485843449831008,
						0.07363243401050567,
						-0.08672451227903366,
						-0.2011602818965912,
						-0.06251860409975051,
						0.2839522063732147,
						0.30661541223526,
						0.1126026511192322,
						-0.4419223666191101,
						-0.1709989458322525,
						0.1085013821721077,
						0.2306481748819351,
						0.1570095419883728,
						-0.2880953848361969,
						0.02189716510474681,
						0.0166970957070589,
						0.2208241671323776,
						-0.007756889332085847,
						0.02535354346036911,
						-0.2543236911296844,
						-0.1521911025047302,
						-0.03386784717440605,
						-0.06706548482179641,
						-0.09011424332857132,
						-0.3306820392608643,
						-0.2659282386302948
					]
				},
				{
					"weights": [
						-0.04101139679551124,
						0.1288362890481949,
						0.06657061725854873,
						0.06183430925011634,
						-0.1248008832335472,
						-0.190234437584877,
						-0.04447801038622856,
						-0.09257562458515167,
						0.2443830370903015,
						-0.1488126218318939,
						-0.1344622522592545,
						-0.1179073452949524,
						-0.1924662888050079,
						0.2178933918476105,
						-0.09686524420976638,
						-0.1060072779655457,
						0.02236807160079479,
						-0.06872928887605667,
						-0.01112587098032236,
						-0.1562671214342117,
						-0.1898730248212814,
						-0.133247435092926,
						0.006531736347824335,
						0.004189794417470693,
						-0.2450618892908096,
						-0.1286249160766602,
						-0.01182868145406246,
						0.03251918777823448,
						-0.4507012665271759,
						0.04566995427012443,
						-0.234826847910881,
						-0.1919994950294495,
						0.1523737460374832,
						-0.356782078742981,
						-0.2454405426979065
					]
				},
				{
					"weights": [
						-0.3531439900398254,
						0.3313360810279846,
						0.368939220905304,
						0.2390165627002716,
						-0.03638103604316711,
						-0.1091235056519508,
						-0.1175413578748703,
						0.08292447030544281,
						0.03454203531146049,
						-0.2923780083656311,
						0.006217520218342542,
						-0.1123256757855415,
						-0.1327766478061676,
						0.03949936851859092,
						-0.338238388299942,
						-0.1183524802327156,
						0.06492234766483306,
						-0.06426171213388443,
						-0.06280553340911865,
						-0.1860287934541702,
						-0.00420546717941761,
						-0.09323722869157791,
						-0.02335854619741439,
						0.05581751838326454,
						-0.1876829266548157,
						-0.2403340190649033,
						0.1209629476070404,
						0.06211617588996887,
						-0.2782389521598816,
						-0.07612523436546325,
						-0.5890123844146729,
						0.1401534378528595,
						0.2431038469076157,
						-0.2396605014801025,
						-0.3012884855270386
					]
				},
				{
					"weights": [
						0.009884790517389774,
						0.02059119194746017,
						0.01757722906768322,
						0.0566009022295475,
						-0.1150360777974129,
						0.1685786545276642,
						-0.08556871116161346,
						-0.1251146793365479,
						-0.05902758613228797,
						-0.2277289927005768,
						0.06028886139392852,
						0.01858636550605297,
						-0.007775661535561084,
						-0.06659242510795593,
						-0.2517431974411011,
						0.009650025516748428,
						0.005883328150957822,
						-0.05901657789945602,
						-0.2534736096858978,
						-0.09548930823802948,
						0.04223246127367019,
						-0.2115741223096848,
						-0.05202149599790573,
						-0.2925397455692291,
						-0.1566992700099945,
						-0.1015767306089401,
						-0.1039012521505356,
						0.007006382104009389,
						-0.3130316138267517,
						-0.05846485123038291,
						-0.03071306832134723,
						0.05370364338159561,
						0.09471406787633895,
						-0.02350027300417423,
						-0.2007154673337936
					]
				},
				{
					"weights": [
						-0.1906045079231262,
						0.2741544842720032,
						0.3157071471214294,
						0.1166523396968842,
						-0.06224308907985687,
						-0.2376216948032379,
						0.06791383028030395,
						-0.03528890758752822,
						0.1154971644282341,
						-0.2470300942659378,
						-0.2502264976501465,
						0.01627917774021625,
						-0.2167756855487823,
						-0.06529901921749115,
						-0.1916553825139999,
						-0.1531960666179657,
						-0.1902320683002472,
						-0.05231776088476181,
						-0.1616651117801666,
						-0.06285840272903442,
						-0.09850751608610153,
						-0.1849975138902664,
						0.1255080103874207,
						-0.01520348154008388,
						-0.05081898719072341,
						0.007781829684972763,
						-0.1088940650224686,
						-0.02181095816195011,
						-0.1770924925804138,
						0.04689430817961692,
						-0.1677510887384415,
						-0.2522791624069214,
						-0.09333341568708419,
						-0.2195112854242325,
						-0.02057306095957756
					]
				},
				{
					"weights": [
						-0.1150453612208366,
						0.09054654091596603,
						0.1089299544692039,
						0.02536724135279655,
						0.1110096946358681,
						-0.03804811835289001,
						-0.1284116357564926,
						0.05321039631962776,
						-0.326686680316925,
						0.09941177070140838,
						0.04424789547920227,
						-0.09043069183826446,
						-0.1179567500948906,
						-0.3184740543365479,
						-0.1954884082078934,
						-0.07237976044416427,
						-0.1302948892116547,
						0.01073184330016374,
						-0.03188713267445564,
						-0.1463983356952667,
						0.1315163820981979,
						-0.04759002849459648,
						0.04163874313235282,
						-0.06493331491947174,
						0.02273615635931491,
						-0.120289146900177,
						-0.1440140157938004,
						-0.161522388458252,
						0.001813422888517379,
						-0.009670807048678398,
						-0.1764118522405624,
						-0.04362175613641738,
						-0.3056209683418274,
						0.03356779739260673,
						0.1873615086078644
					]
				},
				{
					"weights": [
						-0.1388987898826599,
						0.1408863514661789,
						0.04835396632552146,
						0.01627551205456256,
						0.1094831973314285,
						-0.02477561496198177,
						-0.04838960990309715,
						-0.08247750252485275,
						-0.003698859363794326,
						-0.2022445797920227,
						-0.1852188259363174,
						0.00817672349512577,
						-0.003728900337591767,
						-0.1372909247875214,
						-0.2901565730571747,
						-0.1041344702243805,
						-0.09850510209798812,
						0.004484602250158786,
						-0.2739023268222809,
						-0.1285231113433838,
						-0.01147058233618736,
						-0.1504460424184799,
						0.04173891246318817,
						-0.2263525724411011,
						-0.07775704562664032,
						-0.1316085755825043,
						-0.0004792257095687091,
						-0.03050876967608928,
						-0.2609995603561401,
						-0.01118076499551534,
						-0.242157518863678,
						0.1606740057468414,
						0.2976586520671844,
						-0.02423790656030178,
						-0.3175709247589111
					]
				},
				{
					"weights": [
						-0.008181032724678516,
						-0.01166842132806778,
						-0.03544220700860023,
						-0.1270664781332016,
						-0.1487793326377869,
						-0.1099595949053764,
						0.0738341137766838,
						0.01173124369233846,
						0.1348825097084045,
						-0.3026951849460602,
						-0.1271706223487854,
						0.1652271002531052,
						-0.01135348621755838,
						-0.1355514526367188,
						-0.2166427075862885,
						-0.1666293442249298,
						-0.05123089998960495,
						-0.02606934309005737,
						-0.04802099987864494,
						-0.1495765000581741,
						-0.1039395481348038,
						-0.05508290231227874,
						-0.03881364315748214,
						-0.04263879358768463,
						-0.00410086615011096,
						-0.0446755364537239,
						-0.02647989988327026,
						-0.1040666699409485,
						-0.2070075422525406,
						0.2317355126142502,
						-0.00827744323760271,
						-0.3278480470180511,
						-0.008344474248588085,
						-0.2719919681549072,
						-0.3726889491081238
					]
				},
				{
					"weights": [
						-0.2132365554571152,
						-0.143256738781929,
						-0.2044385075569153,
						-0.09138941019773483,
						0.07455707341432571,
						-0.06230899691581726,
						-0.107090450823307,
						-0.2109303921461105,
						-0.02623121440410614,
						0.2868401408195496,
						0.0107183763757348,
						-0.2538358867168427,
						-0.1928642243146896,
						-0.04998096078634262,
						0.3349694907665253,
						-0.1232086643576622,
						-0.04904893040657043,
						-0.2324696779251099,
						-0.09836605191230773,
						0.1149249672889709,
						-0.1861996501684189,
						-0.06312670558691024,
						-0.2951051890850067,
						0.05803903937339782,
						0.1527342796325684,
						0.1816398650407791,
						-0.02650727704167366,
						-0.1976997554302216,
						-0.06304186582565307,
						-0.1524088233709335,
						-0.1297528892755508,
						0.3774150013923645,
						0.3157660961151123,
						0.08073560893535614,
						0.2350846230983734
					]
				},
				{
					"weights": [
						0.1246033608913422,
						-0.3278170824050903,
						-0.2797130644321442,
						-0.1888532936573029,
						0.3594733774662018,
						0.02594842016696929,
						-0.0753670260310173,
						-0.06855043768882751,
						-0.1751144379377365,
						-0.03127922490239143,
						-0.07584895193576812,
						0.05748894438147544,
						-0.1705782115459442,
						-0.2524289786815643,
						-0.03534002229571342,
						-0.1567345559597015,
						0.06948354095220565,
						0.08523294329643249,
						0.06139524653553962,
						0.1184867918491364,
						-0.09402086585760116,
						0.1689740568399429,
						0.1036691665649414,
						-0.1909936964511871,
						-0.2271030694246292,
						-0.08359599113464355,
						-0.1786289364099503,
						-0.1062078922986984,
						-0.1032005026936531,
						-0.213875487446785,
						0.1161030679941177,
						-0.3930075764656067,
						-0.3747228980064392,
						-0.257599264383316,
						-0.08638475090265274
					]
				},
				{
					"weights": [
						-0.06422919780015945,
						-0.1514528840780258,
						-0.1082482039928436,
						-0.1115816533565521,
						-0.1743603944778442,
						-0.03125864639878273,
						-0.1498503237962723,
						0.02050590515136718,
						-0.1206154450774193,
						-0.04749106243252754,
						0.03062858805060386,
						0.02205963619053363,
						-0.1495627611875534,
						-0.1842380464076996,
						0.1473399251699448,
						-0.05154202878475189,
						-0.1197014823555946,
						-0.1774587482213974,
						-0.04487102851271629,
						0.009694598615169525,
						0.113731324672699,
						-0.06927290558815002,
						-0.2256639450788498,
						-0.1712271273136139,
						0.002466225298121571,
						-0.0877721682190895,
						-0.1218832358717918,
						0.01977814733982086,
						-0.1369410753250122,
						0.07861030846834182,
						-0.145669087767601,
						-0.01918486692011356,
						0.09887339919805526,
						-0.1172730848193169,
						-0.1553755104541779
					]
				},
				{
					"weights": [
						-0.2027390748262405,
						-0.1075379624962807,
						-0.09538654237985611,
						-0.09941089153289794,
						-0.2075792700052261,
						-0.076352559030056,
						0.1101792678236961,
						0.0643324851989746,
						-0.3062806129455566,
						-0.03348873183131218,
						-0.1890407055616379,
						0.02398275770246982,
						0.1167555078864098,
						-0.1836857944726944,
						-0.3276417553424835,
						-0.0527985505759716,
						-0.2211269289255142,
						0.07756438106298446,
						-0.1967475116252899,
						-0.3365532755851746,
						-0.04519736021757125,
						-0.08505543321371078,
						-0.04195501282811164,
						-0.06135483086109161,
						0.04473717138171196,
						-0.07446726411581039,
						-0.08874333649873733,
						0.06901820749044418,
						-0.008627141825854778,
						0.1402651965618134,
						-0.2275087833404541,
						0.2199780344963074,
						0.03781238198280334,
						0.2761859595775604,
						0.03338008001446723
					]
				},
				{
					"weights": [
						0.154521256685257,
						0.1400495767593384,
						0.109123095870018,
						0.01063763909041881,
						0.03611164912581443,
						0.03791059181094169,
						-0.04782871901988983,
						-0.02794663980603218,
						-0.4317954480648041,
						0.1400172263383865,
						0.1174152866005898,
						-0.04744905233383178,
						-0.1013853773474693,
						-0.3893300890922546,
						-0.08288797736167907,
						-0.08538834750652313,
						-0.2412520498037338,
						0.2771554291248322,
						-0.1686379313468933,
						-0.131385400891304,
						-0.05906188860535621,
						-0.1328149288892746,
						0.1338033974170685,
						-0.2929481565952301,
						-0.1314773708581924,
						0.03634437918663024,
						-0.2648382186889648,
						-0.3101778626441956,
						-0.112549751996994,
						0.06376323848962783,
						0.2044243812561035,
						-0.1434278935194016,
						-0.2305214405059814,
						0.3100113570690155,
						0.2860041260719299
					]
				},
				{
					"weights": [
						0.1581499874591827,
						-0.1205806657671928,
						-0.2560608088970184,
						-0.04859772324562072,
						0.2387301474809647,
						-0.04126593098044395,
						0.05557679757475853,
						-0.3360511958599091,
						0.08434525877237319,
						-0.1740937530994415,
						-0.03790492191910743,
						-0.029368557035923,
						-0.2669184803962708,
						0.1021721214056015,
						0.07726886123418808,
						-0.009166408330202102,
						0.09665709733963012,
						-0.1302792429924011,
						-0.1211863681674004,
						0.09008077532052993,
						-0.07849126309156417,
						-0.1828655302524567,
						-0.2943627238273621,
						-0.2441897094249725,
						-0.1436922252178192,
						0.2235757559537888,
						-0.006819704081863164,
						-0.2644001841545105,
						-0.2914599180221558,
						-0.04879061877727508,
						0.1806117296218872,
						-0.007462817709892988,
						0.0840303897857666,
						-0.3355459272861481,
						-0.02533159777522087
					]
				},
				{
					"weights": [
						-0.2021522969007492,
						-0.123615026473999,
						-0.1879777759313583,
						-0.1159631386399269,
						0.1891929805278778,
						-0.02880915068089962,
						-0.1369214355945587,
						-0.1027877852320671,
						-0.2368706613779068,
						0.04956014081835746,
						-0.005480540450662374,
						-0.06105965003371238,
						-0.07084305584430694,
						-0.05944800376892089,
						-0.188772052526474,
						-0.09984045475721359,
						-0.02262927591800689,
						0.08966626971960067,
						0.1190645918250084,
						-0.09584282338619232,
						-0.2028490155935287,
						-0.06648118793964386,
						-0.1914541870355606,
						-0.1228188276290894,
						-0.05199655517935752,
						-0.01530767884105444,
						0.0332094095647335,
						-0.2113330811262131,
						-0.2391512542963028,
						-0.07115048915147781,
						-0.1589490175247192,
						0.01149844750761985,
						0.0319274365901947,
						-0.06246897205710411,
						-0.03547160699963569
					]
				},
				{
					"weights": [
						-0.03583202138543129,
						0.01740553975105285,
						0.1278487741947174,
						0.05336302891373634,
						0.2041283398866653,
						0.1874120831489563,
						-0.2985987663269043,
						-0.2645932734012604,
						0.05420240014791488,
						-0.1869855225086212,
						0.1021603122353554,
						-0.04225498437881469,
						-0.183532252907753,
						-0.1849198192358017,
						0.1030482724308968,
						0.1278415471315384,
						0.3058501780033112,
						-0.1362011730670929,
						0.1320961564779282,
						0.05935700237751007,
						0.06062835454940795,
						0.1046504452824593,
						-0.2532807290554047,
						0.3574474155902863,
						0.02369935065507888,
						0.249242976307869,
						-0.177645280957222,
						-0.2632249593734741,
						-0.1221271380782127,
						-0.063658207654953,
						0.2496667951345444,
						-0.318763256072998,
						-0.411896675825119,
						-0.3209100365638733,
						0.1353497803211212
					]
				},
				{
					"weights": [
						0.09819651395082473,
						-0.06266779452562332,
						-0.3941751718521118,
						-0.02568073570728302,
						0.1176735982298851,
						0.08229953795671463,
						-0.1869079172611237,
						-0.2323583215475082,
						-0.03784253820776939,
						0.04624184966087341,
						-0.05259652435779571,
						-0.1674215644598007,
						-0.1706070303916931,
						-0.1352003514766693,
						0.3286677598953247,
						0.03140017017722129,
						0.09426728636026382,
						-0.03728719800710678,
						0.005340786185115575,
						0.2394523769617081,
						-0.01035775430500507,
						-0.03115215525031089,
						-0.1819942593574524,
						-0.1744346469640732,
						-0.02215400151908397,
						0.03485582396388053,
						-0.06336375325918197,
						-0.3148993253707886,
						-0.3136566281318665,
						-0.09171152859926223,
						0.07692226022481918,
						0.09692499041557312,
						0.1419727206230164,
						-0.1347785592079163,
						0.03136615082621574
					]
				},
				{
					"weights": [
						-0.09078988432884216,
						-0.2155753523111343,
						-0.1944942325353622,
						-0.2372336387634277,
						0.07539911568164825,
						0.03628058731555938,
						0.02877152524888515,
						-0.1288697868585587,
						0.06303217262029647,
						-0.1565911918878555,
						0.05216482281684875,
						-0.03871430829167366,
						-0.01806502975523471,
						0.05976475030183792,
						-0.04199881851673126,
						0.009505729191005229,
						0.007138720247894525,
						-0.1504083126783371,
						-0.1534881740808487,
						-0.1568154096603394,
						-0.06073173135519027,
						0.05426695570349693,
						2.868725277949125e-05,
						-0.165375679731369,
						-0.1206049919128418,
						-0.04568444937467575,
						-0.1590360403060913,
						-0.1169984042644501,
						-0.1061626374721527,
						0.01576367206871509,
						-0.1083614006638527,
						-0.2408616244792938,
						-0.1542287766933441,
						-0.2465982884168625,
						-0.3222690224647522
					]
				},
				{
					"weights": [
						0.1245695501565933,
						-0.03219268843531608,
						0.04847762733697891,
						0.04096338897943496,
						-0.3504894077777863,
						-0.04644004255533218,
						-0.09454843401908874,
						-0.01445863489061594,
						-0.1396398395299911,
						-0.01284586172550916,
						0.01130266766995191,
						-0.03121136873960495,
						0.135259136557579,
						-0.06447712332010269,
						-0.0706334114074707,
						0.02064713463187217,
						-0.274277001619339,
						-0.08162761479616165,
						-0.01849648915231227,
						-0.2294024229049683,
						0.1710376739501953,
						0.0665382444858551,
						0.1259540021419525,
						0.06607001274824142,
						-0.07305248081684112,
						0.08676923811435699,
						-0.1840254962444305,
						-0.006018470972776412,
						0.2415010184049606,
						-0.1286276578903198,
						0.2336083650588989,
						-0.4094134867191315,
						-0.4252900779247284,
						0.06508579105138778,
						-0.06896143406629562
					]
				},
				{
					"weights": [
						-0.04579771682620048,
						-0.02573592960834503,
						0.02106998302042484,
						0.04938021674752235,
						0.05021368339657783,
						0.09214819222688674,
						-0.2952682971954346,
						-0.009501654654741287,
						-0.3646376132965088,
						0.09000016003847122,
						0.05820899084210395,
						-0.2316698580980301,
						0.02330375835299491,
						-0.3888181746006012,
						-0.21807861328125,
						-0.101314976811409,
						-0.0009129949612542986,
						-0.001343450974673032,
						-0.1161979511380196,
						-0.04124213010072708,
						-0.0760124921798706,
						-0.1236966997385025,
						0.05996991693973541,
						-0.1961031258106232,
						0.04375936836004257,
						-0.2323049604892731,
						-0.01933466456830501,
						-0.1365547031164169,
						-0.02912359125912189,
						0.09738805890083313,
						-0.2550273537635803,
						0.1048450320959091,
						0.09430071711540222,
						0.3613139986991882,
						0.1059091836214066
					]
				},
				{
					"weights": [
						-0.07188557833433151,
						0.04870354756712913,
						0.09370186179876327,
						-0.09350474178791046,
						-0.03707553446292877,
						-0.1966770440340042,
						0.08970919251441955,
						-0.1450085639953613,
						-0.1625401526689529,
						-0.01005905866622924,
						-0.1105806976556778,
						0.01597286202013492,
						-0.02563029713928699,
						-0.06614280492067337,
						-0.1926500350236893,
						0.01412022300064563,
						-0.2336650639772415,
						-0.09745962917804718,
						-0.03952929377555847,
						-0.1774037182331085,
						0.1136237382888794,
						-0.1349016577005386,
						0.05488345026969909,
						-0.1386545300483704,
						0.01235389336943626,
						0.1135680601000786,
						-0.1842965930700302,
						-0.1420568227767944,
						0.02897148579359054,
						0.02921407669782638,
						0.1017464026808739,
						-0.1042056456208229,
						-0.1683239787817001,
						-0.15977543592453,
						-0.06569740921258926
					]
				},
				{
					"weights": [
						0.09697026014328002,
						-0.0719526782631874,
						0.03035472333431243,
						-0.1221176758408546,
						-0.210373654961586,
						0.003253558184951543,
						-0.0665576159954071,
						0.1764067560434341,
						-0.05011796206235885,
						-0.01764455810189247,
						0.04478427767753601,
						0.01513737440109252,
						0.09648309648036956,
						-0.161157414317131,
						-0.2893352508544922,
						0.03763782605528831,
						-0.05977538600564003,
						-0.03951495513319969,
						-0.1551735699176788,
						-0.2417932748794556,
						-0.08906297385692596,
						-0.1502692252397537,
						0.1161574795842171,
						-0.1344839483499527,
						-0.2090873420238495,
						-0.2220858782529831,
						-0.113083228468895,
						0.07843109965324401,
						0.1058821305632591,
						-0.03877005353569984,
						-0.2176386266946793,
						-0.1309419870376587,
						-0.0788719356060028,
						-0.04396378621459007,
						-0.3682717084884644
					]
				},
				{
					"weights": [
						-0.1512221843004227,
						-0.2558144330978394,
						-0.01011043414473533,
						-0.2536798119544983,
						-0.4170231819152832,
						-0.07981661707162857,
						0.01765968650579452,
						0.03876293078064918,
						0.1203322559595108,
						-0.03064599074423313,
						-0.09194464236497879,
						-0.1220801398158073,
						0.01289159711450338,
						-0.01208420936018228,
						0.05242272466421127,
						0.001952617312781512,
						-0.2892749309539795,
						-0.1936992406845093,
						-0.212610587477684,
						0.02638276666402816,
						0.04424162581562995,
						-0.1441971659660339,
						-0.02682670578360557,
						-0.08590838313102722,
						0.0004117945209145545,
						0.02599687874317169,
						-0.07947525382041931,
						0.167913407087326,
						0.1580151915550232,
						0.09330862015485763,
						-0.05809561535716056,
						0.07550287991762161,
						-0.02790063992142677,
						-0.1215194314718246,
						-0.1922193318605423
					]
				},
				{
					"weights": [
						0.1062977686524391,
						-0.04751814901828765,
						-0.006941160652786493,
						-0.1573606729507446,
						-0.3832255303859711,
						0.1553796380758286,
						-0.2174999117851257,
						-0.07588423043489456,
						-0.1082814708352089,
						-0.09969715029001236,
						0.1884937882423401,
						-0.03878983855247497,
						-0.03943826258182525,
						-0.2514331638813019,
						-0.0001315839326707646,
						0.1187421977519989,
						-0.0153257418423891,
						-0.1014561802148819,
						0.03331678360700607,
						-0.04544050991535186,
						0.03892552480101585,
						0.007176489569246768,
						-0.07974901050329208,
						0.0002832944155670702,
						-0.04247558489441871,
						0.0613885261118412,
						-0.19755619764328,
						-0.1894601136445999,
						0.1032985150814056,
						-0.1314054727554321,
						0.2750768065452576,
						-0.04355189204216003,
						-0.1064548939466476,
						0.2392566651105881,
						0.1105370298027992
					]
				},
				{
					"weights": [
						-0.02462531812489032,
						-0.2187822759151459,
						-0.2022246122360229,
						-0.1348547041416168,
						0.04185772687196731,
						-0.04186506196856498,
						-0.05744372308254241,
						-0.2844672501087189,
						-0.2109303176403046,
						0.09931235015392303,
						-0.1251879036426544,
						-0.2472074627876282,
						-0.2265584170818329,
						0.01076696440577507,
						0.1889355629682541,
						-0.1567080616950989,
						-0.2901786863803864,
						-0.02221688069403171,
						-0.1637826710939407,
						-0.01715311408042907,
						-0.09890621155500412,
						-0.09388178586959838,
						-0.2063234150409698,
						-0.1759683191776276,
						0.108810618519783,
						-0.06544625759124755,
						0.08790602535009384,
						-0.06356563419103622,
						-0.06685757637023925,
						-0.02774932608008384,
						-0.1216774433851242,
						0.335490882396698,
						0.2753142714500427,
						0.2863092720508575,
						0.03663476929068565
					]
				},
				{
					"weights": [
						-0.03333570063114166,
						-0.09254392236471176,
						-0.1158635690808296,
						-0.08488128334283828,
						-0.1489855051040649,
						0.06864552944898605,
						-0.157330259680748,
						-0.05452854931354522,
						-0.1532130539417267,
						0.1386145204305649,
						-0.009927475824952125,
						-0.1398340314626694,
						-0.09421828389167785,
						-0.1653145104646683,
						0.1646022200584412,
						0.07258874177932739,
						-0.1938811391592026,
						-0.06071896851062774,
						-0.09266996383666992,
						0.06304097175598144,
						0.005578622687608003,
						-0.06974481791257858,
						-0.1651011109352112,
						-0.1853938102722168,
						0.06982370465993881,
						0.01214479561895132,
						-0.1196035966277122,
						-0.1656606048345566,
						0.0966062992811203,
						-0.05212868377566337,
						-0.2017950564622879,
						0.1492028832435608,
						-0.1100589707493782,
						0.0759940966963768,
						-0.01503574941307306
					]
				},
				{
					"weights": [
						-0.05195190757513046,
						-0.05472130700945854,
						-0.2499839067459106,
						-0.1180688589811325,
						-0.04132114350795745,
						0.2241369038820267,
						-0.32134610414505,
						-0.1576840728521347,
						-0.2397638112306595,
						-0.04848105087876319,
						0.3242799043655396,
						-0.1461023390293121,
						-0.02319137193262577,
						-0.2776835560798645,
						0.2135162949562073,
						0.2184254974126816,
						0.2666071951389313,
						-0.1772982329130173,
						0.1014045923948288,
						0.01252480875700712,
						0.04630178585648536,
						0.1822261959314346,
						-0.2442072480916977,
						-0.1660514324903488,
						0.01306930836290121,
						0.06282882392406463,
						-0.1804885119199753,
						-0.1811888515949249,
						-0.177441269159317,
						0.00484843598678708,
						0.03562682494521141,
						-0.07786208391189575,
						-0.1199899464845657,
						0.1695632487535477,
						-0.1791409403085709
					]
				},
				{
					"weights": [
						0.04581495001912117,
						0.1459205150604248,
						0.241040825843811,
						-0.01385850179940462,
						-0.1008948385715485,
						-0.05933073535561561,
						0.05618505552411079,
						-0.02631894499063491,
						-0.1792687922716141,
						-0.3076404333114624,
						-0.02176055312156677,
						0.0872083231806755,
						-0.030868386849761,
						-0.225608691573143,
						-0.3701995611190796,
						0.09080909937620163,
						-0.1248717978596687,
						0.02857745625078678,
						-0.1072380691766739,
						-0.1106665655970573,
						0.05194362998008728,
						-0.1003428027033806,
						0.06826178729534149,
						0.008038516156375408,
						-0.0984916016459465,
						-0.1387440860271454,
						-0.2661694288253784,
						0.03164424002170562,
						0.0104145323857665,
						-0.03113581798970699,
						-0.1483857184648514,
						-0.2006906121969223,
						-0.1359883993864059,
						0.01343242451548576,
						-0.08814473450183868
					]
				},
				{
					"weights": [
						-0.09206403791904449,
						-0.1751580387353897,
						-0.05565036833286285,
						-0.1831039935350418,
						-0.1181591749191284,
						0.003327074460685253,
						-0.06121335178613662,
						0.1004230529069901,
						0.009209934622049331,
						-0.2156747579574585,
						-0.1064784377813339,
						0.0294235274195671,
						-0.01349961943924427,
						-0.1488750129938126,
						-0.1896340548992157,
						-0.03473233059048652,
						-0.02864041924476623,
						-0.03882505744695663,
						-0.1317233890295029,
						-0.2318798452615738,
						0.03701270744204521,
						-0.01515704113990068,
						-0.06883533298969268,
						-0.07099539786577224,
						-0.1958215087652206,
						-0.2106334269046783,
						-0.06208827346563339,
						0.05274734646081924,
						-0.04991157352924346,
						0.01734812185168266,
						-0.09987986832857132,
						-0.1484286189079285,
						-0.1560576111078262,
						-0.09910763055086135,
						-0.2674837112426758
					]
				},
				{
					"weights": [
						-0.06299067288637161,
						-0.1297754049301147,
						-0.1030818372964859,
						-0.06400699913501739,
						-0.03276810050010681,
						0.1300472170114517,
						-0.1174163594841957,
						-0.2230939418077469,
						0.07426607608795166,
						0.08978407084941864,
						0.06105899438261985,
						-0.3145019114017487,
						-0.164087250828743,
						-0.1731929630041122,
						0.3108153641223907,
						0.2024020850658417,
						-0.1654237508773804,
						-0.2299558222293854,
						-0.07306626439094543,
						0.1735256314277649,
						0.1856201142072678,
						0.03288957849144935,
						-0.1796295642852783,
						-0.1750368773937225,
						-0.1233840733766556,
						0.01745048910379409,
						0.06634166091680526,
						-0.09586940705776214,
						0.01167479064315557,
						-0.286868155002594,
						-0.1485708802938461,
						0.3267788589000702,
						0.2282133996486664,
						-0.09559486806392669,
						-0.1107444763183594
					]
				},
				{
					"weights": [
						-0.02226182073354721,
						0.2088868916034698,
						0.1849055290222168,
						0.110416479408741,
						-0.1136419773101807,
						-0.04857510328292846,
						0.02407644689083099,
						0.05635662004351615,
						-0.2475374042987823,
						-0.2410941123962402,
						-0.1508880853652954,
						0.04973310604691505,
						0.0004792511463165283,
						-0.2271162271499634,
						-0.4130008220672607,
						-0.1234386637806892,
						-0.1932688653469086,
						0.001264569582417607,
						0.02027622237801551,
						-0.1375889331102371,
						0.05163842067122459,
						-0.1926016807556152,
						0.07490523159503936,
						0.03454102575778961,
						-0.1604724526405334,
						-0.1215371415019035,
						-0.09851688146591186,
						-0.1610822081565857,
						-0.08797238767147064,
						0.01273117773234844,
						-0.04055172950029373,
						0.05142927542328834,
						-0.1144180372357368,
						0.00063590076752007,
						0.05973435565829277
					]
				},
				{
					"weights": [
						-0.09599896520376205,
						-0.05382801219820976,
						-0.1167364865541458,
						-0.1318215131759644,
						0.0976138561964035,
						-0.337669849395752,
						-0.03816587477922439,
						-0.1774713397026062,
						-0.0224400982260704,
						0.1913290768861771,
						-0.2823877930641174,
						-0.05703403800725936,
						0.04991562291979789,
						0.09094537049531936,
						-0.01509136147797107,
						-0.2844247221946716,
						-0.1931443959474564,
						-0.0428505353629589,
						-0.1270907372236252,
						-0.0574871152639389,
						-0.1751694977283478,
						-0.06927618384361267,
						-0.1013559699058533,
						0.2004101574420929,
						-0.2234439998865128,
						0.00911939051002264,
						0.05351828038692474,
						0.01013336330652236,
						0.3663713037967682,
						-0.3037088513374329,
						0.01707352884113788,
						0.0155590996146202,
						-0.173216849565506,
						0.009343436919152736,
						0.2427569776773453
					]
				},
				{
					"weights": [
						-0.03096165135502815,
						0.1926604062318802,
						0.04378395155072212,
						0.2003193795681,
						0.02330097928643226,
						0.03010621853172779,
						-0.1972422450780869,
						0.09689852595329284,
						-0.2276760190725327,
						-0.1325337737798691,
						0.09663335233926773,
						-0.1488228738307953,
						-0.1029788106679916,
						-0.205734595656395,
						-0.2114327847957611,
						-0.02664384059607982,
						0.1351542770862579,
						-0.1619756072759628,
						-0.08736679702997207,
						-0.1749298572540283,
						-0.02526002191007137,
						-0.1663515716791153,
						-0.094683438539505,
						-0.2110785692930222,
						-0.0937449038028717,
						-0.06143686547875404,
						-0.09900081902742385,
						-0.1210644692182541,
						-0.2933551073074341,
						0.08897356688976287,
						-0.2676127851009369,
						0.03823429718613624,
						-0.006679375655949115,
						0.07568368315696716,
						-0.07340224832296371
					]
				},
				{
					"weights": [
						-0.2357270419597626,
						0.2389818280935287,
						0.3959323167800903,
						0.2870024740695953,
						0.4019095599651337,
						-0.1701192408800125,
						-0.1170403212308884,
						-0.1020418331027031,
						-0.3950479626655579,
						-0.007772142998874187,
						-0.1709525734186172,
						0.06351290643215179,
						-0.1608920097351074,
						-0.1941582858562469,
						-0.2139998227357864,
						-0.2893829941749573,
						-0.1170609220862389,
						0.03775395080447197,
						0.2606982886791229,
						0.01238235644996166,
						-0.1508416682481766,
						-0.06517105549573898,
						0.1422256529331207,
						0.588387668132782,
						0.3279428482055664,
						-0.01083400100469589,
						-0.1308266669511795,
						-0.1151981726288795,
						0.09666262567043304,
						-0.03579368442296981,
						-0.1999674588441849,
						-0.2878311276435852,
						-0.4262391924858093,
						-0.0266672596335411,
						0.5722880959510803
					]
				},
				{
					"weights": [
						-0.1810041815042496,
						0.1709837168455124,
						0.2074406743049622,
						-0.002184136072173714,
						-0.4435978531837463,
						0.07317019253969192,
						-0.2234210073947906,
						0.01506457291543483,
						-0.1314107775688171,
						-0.1506686210632324,
						0.139153853058815,
						-0.0812109038233757,
						0.02727770991623401,
						0.00748240016400814,
						-0.0893392190337181,
						-0.1464216858148575,
						-0.1340257972478867,
						0.04874462634325027,
						0.03381448239088058,
						-0.2400153875350952,
						-0.1187216266989708,
						-0.2007086127996445,
						-0.05589339882135391,
						0.1640375852584839,
						0.4476045370101929,
						0.1134253516793251,
						-0.140606015920639,
						-0.151012048125267,
						0.135265439748764,
						0.3167031705379486,
						0.1805079430341721,
						0.07684343308210372,
						0.1076635196805,
						0.334476500749588,
						0.2804006338119507
					]
				},
				{
					"weights": [
						-0.1293864250183105,
						0.1981271058320999,
						0.09377729892730712,
						-0.04888902604579925,
						-0.3726179599761963,
						-0.176671952009201,
						0.2860166132450104,
						0.3226088881492615,
						0.1110000684857368,
						-0.3167273998260498,
						-0.2929930686950684,
						0.2575868964195251,
						0.1535072922706604,
						0.008320454508066177,
						-0.4632982909679413,
						-0.09849734604358673,
						-0.3788106739521027,
						0.07244569808244705,
						-0.2104161232709885,
						-0.2505742609500885,
						-0.06392019987106323,
						-0.3199788331985474,
						0.2151460200548172,
						-0.1133144050836563,
						-0.08527016639709472,
						-0.09544820338487625,
						-0.02970995381474494,
						0.1429828852415085,
						-0.07336273789405822,
						0.2331026345491409,
						-0.1049952805042267,
						-0.3056149780750275,
						-0.09814416617155075,
						-0.0841723158955574,
						-0.3217172920703888
					]
				},
				{
					"weights": [
						-0.007529181893914937,
						-0.07664884626865387,
						-0.006655061617493629,
						0.03947536647319793,
						0.01169278193265199,
						-0.1275582164525986,
						-0.1483422815799713,
						-0.1059877723455429,
						-0.2131112962961197,
						-0.005977415479719638,
						0.08650736510753631,
						-0.1124798581004143,
						0.03843795508146286,
						-0.3455685675144196,
						-0.2435287088155746,
						0.03166598826646804,
						-0.1404784619808197,
						0.1476103514432907,
						-0.1746053993701935,
						-0.2684695720672607,
						-0.0600690022110939,
						-0.08166339993476867,
						-0.02388029359281063,
						-0.03636638447642326,
						-0.2550198137760162,
						-0.07072784751653671,
						-0.1707555800676346,
						-0.1708329170942307,
						0.1378141045570374,
						-0.06318067759275436,
						0.1677679568529129,
						0.07297789305448532,
						-0.0427093468606472,
						0.3131515383720398,
						0.08853381127119064
					]
				},
				{
					"weights": [
						-0.3326959013938904,
						0.07425961643457412,
						0.08799482882022857,
						0.1369625478982925,
						0.1916697025299072,
						-0.14474818110466,
						0.07258415222167968,
						0.03539919480681419,
						-0.08250607550144195,
						-0.2333648204803467,
						-0.0901714488863945,
						-0.09372024238109588,
						-0.1187242344021797,
						-0.03073581494390964,
						-0.207900270819664,
						-0.1864279806613922,
						0.01856052316725254,
						-0.07663238793611526,
						-0.08279667794704437,
						-0.2200964242219925,
						-0.06915007531642913,
						0.01391708943992853,
						-0.02192189916968345,
						0.286224752664566,
						-0.1517489105463028,
						-0.08069200813770294,
						0.09601891785860061,
						0.02034217305481433,
						-0.04431081563234329,
						0.08194100856781005,
						-0.4414032101631165,
						-0.1678607314825058,
						-0.2421335279941559,
						-0.1632734090089798,
						-0.06591187417507171
					]
				},
				{
					"weights": [
						-0.04519832879304885,
						-0.2590759992599487,
						-0.1144478023052216,
						-0.01946484297513961,
						0.3307183384895325,
						-0.06826511025428772,
						-0.03707265853881835,
						-0.07994307577610015,
						-0.2295393496751785,
						0.02708084881305694,
						-0.2280406206846237,
						-0.0499260239303112,
						-0.1452758610248566,
						-0.1321641057729721,
						-0.03288701921701431,
						-0.2031349539756775,
						-0.1635672003030777,
						-0.02942871302366256,
						0.006138438358902931,
						-0.118728943169117,
						-0.0211092010140419,
						0.09128923714160919,
						-0.06452010571956634,
						-0.02185911312699317,
						-0.2390857040882111,
						-0.103942759335041,
						-0.09107681363821029,
						-0.1649071723222733,
						0.0206019040197134,
						-0.3328476548194885,
						-0.03337868675589561,
						-0.008442576043307781,
						-0.1697574853897095,
						-0.1450266540050507,
						0.05533778667449951
					]
				},
				{
					"weights": [
						0.02180719934403896,
						-0.004596654791384935,
						0.05232380703091621,
						0.01529788132756948,
						-0.3098781406879425,
						-0.1667317152023315,
						0.173282265663147,
						0.02432991936802864,
						0.08395586907863616,
						-0.1128112897276878,
						-0.2783738076686859,
						0.07627154886722564,
						-0.004113323986530303,
						0.05119126290082931,
						-0.1851790398359299,
						-0.05772805213928222,
						-0.3711362779140472,
						-0.1509581655263901,
						-0.2678163051605225,
						-0.04287534952163696,
						-0.08141390234231948,
						-0.21363365650177,
						0.03062353655695915,
						-0.05950279161334037,
						-0.2122741937637329,
						-0.07761534303426742,
						-0.1475590765476227,
						0.1124381721019745,
						0.07592219114303588,
						-0.1651370823383331,
						0.02319375611841678,
						-0.1058899611234665,
						0.04586593806743621,
						-0.1208968013525009,
						0.03683698549866676
					]
				},
				{
					"weights": [
						0.1805875599384308,
						-0.24042047560215,
						-0.2650971114635468,
						-0.073917917907238,
						-0.08773989975452423,
						-0.1088028103113174,
						0.1023370325565338,
						0.03999536111950874,
						-0.03425916284322738,
						-0.1538150906562805,
						-0.1694245934486389,
						0.1166299283504486,
						0.1586496233940125,
						-0.1923763453960419,
						-0.1809012293815613,
						0.01925081014633178,
						-0.02880684286355972,
						0.1812516450881958,
						-0.03763768449425697,
						-0.0444435179233551,
						-0.08793705701828002,
						-0.05189517140388488,
						0.06281835585832595,
						-0.3297026455402374,
						-0.2303062081336975,
						-0.1281502991914749,
						-0.2593338191509247,
						-0.1657225787639618,
						-0.03545118495821952,
						-0.04517719894647598,
						0.394371896982193,
						-0.4347761571407318,
						-0.282926082611084,
						-0.08576957136392593,
						-0.1296301335096359
					]
				},
				{
					"weights": [
						-0.05228764936327934,
						-0.05555193871259689,
						-0.05540654808282852,
						-0.05905736982822418,
						-0.05170792713761329,
						-0.119455024600029,
						-0.08722089231014251,
						0.07753258198499679,
						0.1321350038051605,
						-0.249199703335762,
						-0.1609107702970505,
						-0.05021553859114646,
						-0.08139751851558685,
						-0.03079327382147312,
						-0.24561507999897,
						-0.1729068905115128,
						0.1547688990831375,
						-0.235373467206955,
						-0.01827219128608703,
						-0.1086764335632324,
						-0.09624780714511871,
						-0.0307139977812767,
						-0.09145611524581909,
						-0.0953851044178009,
						-0.1120088770985603,
						-0.04539930075407028,
						-0.04026456549763679,
						-0.05913837254047393,
						-0.3657606542110443,
						0.1031088307499886,
						-0.1754865348339081,
						-0.1464405953884125,
						0.082388237118721,
						-0.1654764264822006,
						-0.2363167107105255
					]
				},
				{
					"weights": [
						-0.03289560973644256,
						0.01817228458821773,
						-0.01506958808749914,
						-0.03629272058606147,
						-0.03581757470965385,
						0.1106660813093185,
						-0.1610715985298157,
						-0.2095165997743607,
						-0.09203123301267623,
						0.0008054124191403388,
						-0.003282338613644242,
						-0.1973293870687485,
						-0.1303527802228928,
						-0.0004372874973341822,
						-0.08019313216209411,
						-0.001299766241572797,
						-0.1719040870666504,
						-0.01919077709317207,
						-0.05240330472588539,
						-0.07590106874704361,
						-0.1343098729848862,
						-0.1937347203493118,
						-0.1372319757938385,
						-0.1629582345485687,
						-0.2619425654411316,
						-0.2334652245044708,
						0.1035811677575111,
						-0.06434887647628784,
						-0.1485566198825836,
						-0.2004450410604477,
						-0.1653415411710739,
						0.2095257788896561,
						0.3185656368732452,
						0.03289274871349334,
						-0.2305484265089035
					]
				},
				{
					"weights": [
						-0.05589053034782409,
						0.1372067481279373,
						0.03349320590496063,
						0.09526847302913665,
						0.09693998843431472,
						-0.127766489982605,
						-0.05804460495710372,
						-0.178977370262146,
						0.05877672880887985,
						-0.2298388332128525,
						-0.1729584932327271,
						0.04285082221031189,
						-0.214860662817955,
						0.02311859279870986,
						-0.02939997240900993,
						0.03253238275647163,
						-0.02768300473690033,
						-0.184277355670929,
						0.01837627030909061,
						-0.1354836821556091,
						-0.0716370940208435,
						-0.1712186932563782,
						-0.1578947305679321,
						-0.1536137014627457,
						-0.1255328208208084,
						0.002361614257097244,
						-0.15851029753685,
						-0.1807209253311157,
						-0.3504910171031952,
						-0.05297401919960975,
						-0.05127989128232002,
						-0.04504764825105667,
						0.04028210416436195,
						-0.3016106486320496,
						0.0122356042265892
					]
				},
				{
					"weights": [
						-0.0388508029282093,
						-0.2187118530273438,
						-0.1395827531814575,
						0.05526960268616676,
						0.1411029994487762,
						0.1425904482603073,
						-0.2731972336769104,
						-0.05924607813358306,
						-0.4912840127944946,
						0.1547346860170364,
						0.1295105814933777,
						-0.2178380787372589,
						0.0737280398607254,
						-0.563134491443634,
						-0.147232249379158,
						-0.03304692730307579,
						-0.008783814497292041,
						0.118055023252964,
						-0.0961955189704895,
						-0.2153355032205582,
						-0.003804308362305164,
						0.1031037122011185,
						-0.005698624067008495,
						-0.01202726364135742,
						-0.1156436204910278,
						-0.0795941948890686,
						-0.1063910201191902,
						-0.2206245958805084,
						0.1198078393936157,
						-0.03684618324041366,
						-0.1338623017072678,
						0.1662953197956085,
						-0.1766529828310013,
						0.4818320572376251,
						0.2472709715366364
					]
				},
				{
					"weights": [
						0.07282432913780212,
						-0.07539362460374832,
						-0.1222057640552521,
						-0.01860514655709266,
						0.03073430992662906,
						-0.1762151569128036,
						0.1329669654369354,
						-0.223520040512085,
						-0.2961386740207672,
						0.1174783334136009,
						-0.2511650621891022,
						-0.01899614930152893,
						-0.02880501747131347,
						-0.02096213400363922,
						-0.1232420653104782,
						-0.0413026176393032,
						-0.2613793611526489,
						0.03355540335178375,
						-0.09702114760875701,
						-0.2192681133747101,
						0.04114061966538429,
						-0.05772296711802482,
						-0.06144569814205169,
						0.07641734927892684,
						-0.2739167213439941,
						-0.03949125856161117,
						0.002269334625452756,
						-0.2281221300363541,
						0.07850626111030578,
						-0.3481621146202087,
						0.202862411737442,
						-0.06952405720949173,
						-0.1125440075993538,
						-0.002820045454427599,
						0.255260556936264
					]
				},
				{
					"weights": [
						0.08687815070152282,
						-0.288341611623764,
						-0.3865606486797333,
						-0.1868211627006531,
						-0.1689823865890503,
						0.1177264377474785,
						0.06008977442979812,
						-0.02487124130129814,
						0.05026426538825035,
						0.0597209520637989,
						0.1195621564984322,
						0.03079331293702125,
						0.0005291239358484745,
						0.01199409551918506,
						0.1233694851398468,
						0.09622611105442047,
						-0.1408255100250244,
						-0.02655176073312759,
						-0.06303564459085464,
						-0.0758645012974739,
						-0.07081741094589233,
						-0.04192772135138511,
						-0.07993616163730621,
						-0.4682173430919647,
						-0.02858881279826164,
						-0.126250296831131,
						-0.06535834819078445,
						-0.127052828669548,
						-0.1041089445352554,
						-0.001079501118510961,
						0.03496645763516426,
						-0.0777381807565689,
						0.02093245461583137,
						-0.1005933731794357,
						-0.3963291943073273
					]
				},
				{
					"weights": [
						0.06998723000288009,
						0.0450647547841072,
						0.0709754005074501,
						0.1734710782766342,
						0.07793339341878891,
						0.09666522592306137,
						0.2034205198287964,
						-0.08579392731189727,
						-0.184400275349617,
						-0.1745933294296265,
						0.0280129350721836,
						0.2076197415590286,
						0.0426279567182064,
						-0.3106873333454132,
						-0.3084973394870758,
						0.02974371425807476,
						0.2382396012544632,
						-0.01686823926866054,
						0.02986722253262996,
						-0.07784225046634674,
						0.1010278090834618,
						-0.04321962594985961,
						0.07915103435516357,
						-0.1515546888113022,
						-0.2542551457881927,
						-0.1136533692479134,
						-0.1229836568236351,
						-0.06621044874191284,
						-0.3250196874141693,
						0.04627689719200134,
						-0.05023647472262382,
						-0.5332386493682861,
						-0.2897483706474304,
						-0.2864450514316559,
						-0.217685729265213
					]
				},
				{
					"weights": [
						-0.07423020154237747,
						-0.04968185722827911,
						-0.01049791742116212,
						-0.2007152289152145,
						-0.1920908689498901,
						0.2300390899181366,
						-0.1835150271654129,
						-0.1894393414258957,
						-0.05845294147729873,
						0.1696442812681198,
						0.2600192129611969,
						-0.04174673557281494,
						-0.2441253066062927,
						-0.09148753434419632,
						0.2913962304592133,
						-0.04254902899265289,
						0.1211768984794617,
						-0.2669336795806885,
						0.1924902945756912,
						0.1875944435596466,
						-0.09078883379697799,
						0.1335069388151169,
						-0.1287298500537872,
						0.2261435389518738,
						0.4040214121341705,
						0.2855727970600128,
						-0.1309314221143723,
						-0.2513061165809631,
						-0.007354714442044496,
						0.1591584235429764,
						0.1589615643024445,
						-0.1922234147787094,
						-0.3145375847816467,
						-0.05633852630853653,
						0.173078715801239
					]
				},
				{
					"weights": [
						0.04675731435418129,
						-0.01299641840159893,
						-0.1021125540137291,
						-0.05711197480559349,
						-0.03887242823839187,
						0.1932000368833542,
						-0.2042136490345001,
						-0.4154266715049744,
						-0.1180404052138329,
						0.1291919648647308,
						0.2321743220090866,
						-0.2605922818183899,
						-0.1631401777267456,
						-0.2221316695213318,
						0.08913101255893707,
						0.2207890748977661,
						0.03137150779366493,
						-0.2387449443340302,
						-0.1274984776973724,
						0.05356116220355033,
						0.1010781079530716,
						0.04634717851877212,
						-0.2204466611146927,
						-0.1013478562235832,
						-0.0268715713173151,
						-0.06836091727018356,
						0.03781621903181076,
						-0.212847575545311,
						-0.1098033860325813,
						0.0006062813918106257,
						0.02885244973003864,
						0.03249744325876236,
						0.08171593397855758,
						-0.08593484014272689,
						-0.01789994165301322
					]
				},
				{
					"weights": [
						-0.08209824562072753,
						-0.2345250844955444,
						-0.224973052740097,
						-0.1968705654144287,
						-0.09022076427936554,
						-0.03285099565982818,
						-0.03369617462158203,
						-0.202632948756218,
						-0.05118260905146598,
						0.1309700161218643,
						0.08593914657831192,
						-0.1696287840604782,
						-0.1661709547042847,
						-0.1764831990003586,
						0.2046082615852356,
						0.07633504271507263,
						-0.1056604981422424,
						-0.0386812500655651,
						-0.003838189411908388,
						0.03465364873409271,
						0.09680357575416564,
						0.01344493869692087,
						-0.1231318712234497,
						-0.1331526041030884,
						-0.1157953217625618,
						0.07745520770549774,
						-0.158137634396553,
						-0.2952671647071838,
						-0.004782701376825571,
						-0.1933553218841553,
						0.2166341096162796,
						0.04599437490105629,
						-0.08802910149097442,
						0.1083901897072792,
						0.2104946225881577
					]
				},
				{
					"weights": [
						-0.1083134114742279,
						0.1621366441249847,
						0.1561723351478577,
						0.1249113604426384,
						-0.2100439965724945,
						0.03179536014795303,
						0.001477512763813138,
						-0.20856873691082,
						-0.3042593002319336,
						0.2460365146398544,
						0.00796362105756998,
						-0.1535160541534424,
						-0.09237456321716308,
						-0.2338877171278,
						-0.2018679976463318,
						-0.04098955914378166,
						-0.2819674015045166,
						0.1229083463549614,
						-0.2050509005784988,
						-0.05942774564027786,
						-0.06737760454416275,
						-0.185125008225441,
						-0.03298596665263176,
						-0.1427942663431168,
						0.1047573462128639,
						-0.1362240612506866,
						-0.1728114634752274,
						-0.2156009376049042,
						0.04033465310931205,
						0.06722711771726608,
						0.1566091924905777,
						0.2821351587772369,
						0.3082999885082245,
						0.4591707289218903,
						0.3285391926765442
					]
				},
				{
					"weights": [
						0.1041217595338821,
						-0.1318475157022476,
						-0.1626706123352051,
						-0.01846603490412235,
						-0.2637332677841187,
						-0.2455481886863708,
						0.02948615700006485,
						-0.02164545655250549,
						-0.1278829276561737,
						0.05357031896710395,
						-0.1606078296899796,
						0.1011997237801552,
						0.09514630585908889,
						-0.05648830533027648,
						-0.2688502967357635,
						-0.2188457995653152,
						-0.3240785002708435,
						0.1562026888132095,
						0.03238748013973236,
						-0.09254438430070877,
						-0.08093561232089996,
						-0.04657083749771118,
						0.1164513230323792,
						-0.1779906153678894,
						-0.2199303209781647,
						0.009944138117134571,
						-0.07939320057630538,
						-0.02345561422407627,
						0.1299811005592346,
						-0.1651356369256973,
						0.1673535257577896,
						-0.2262316197156906,
						-0.2410647869110107,
						0.01592743583023548,
						-0.006438844371587038
					]
				},
				{
					"weights": [
						0.05119027569890022,
						-0.1192605122923851,
						-0.1736910492181778,
						-0.1021266803145409,
						0.1267091482877731,
						0.09781689941883087,
						-0.07181665301322937,
						-0.3112181723117828,
						-0.04194674268364906,
						-0.02229723893105983,
						0.01077968068420887,
						-0.07388734817504882,
						-0.2858087420463562,
						-0.04195876792073249,
						0.2450827658176422,
						-0.05674328282475471,
						-0.1134891137480736,
						-0.2281179428100586,
						-0.1453399062156677,
						0.07961306720972061,
						-0.003920379094779491,
						-0.1284806281328201,
						-0.2318413555622101,
						-0.2021487653255463,
						-0.002533282153308391,
						0.06889427453279495,
						0.08893297612667083,
						-0.1456944495439529,
						-0.2443019598722458,
						-0.2109237760305405,
						0.03077996149659156,
						0.2564810216426849,
						0.2158815115690231,
						-0.004697056952863931,
						-0.0644378587603569
					]
				},
				{
					"weights": [
						-0.02194130234420299,
						-0.2044307887554169,
						-0.07997221499681472,
						-0.1803470402956009,
						0.2511609494686127,
						-0.1155325099825859,
						0.1126927956938744,
						-0.1566992700099945,
						0.02378483489155769,
						-0.01527696568518877,
						-0.2172996401786804,
						0.02085903100669384,
						-0.2214457094669342,
						0.07462085038423538,
						-0.05994919687509536,
						-0.1551906913518906,
						-0.1946922689676285,
						-0.08043477684259414,
						-0.08544132858514785,
						-0.05764776095747947,
						0.02187932468950748,
						0.01664369367063045,
						-0.09292754530906677,
						0.1137936860322952,
						0.04676559194922447,
						0.07912474870681762,
						0.0274458322674036,
						-0.1727386862039566,
						-0.07268878072500228,
						-0.06027039140462875,
						-0.1083603873848915,
						-0.1257439702749252,
						-0.1291470229625702,
						-0.3500098884105682,
						-0.2172712236642838
					]
				},
				{
					"weights": [
						-0.006651819217950105,
						-0.08498594909906387,
						-0.2381076514720917,
						-0.07547427713871002,
						0.2069197297096252,
						0.1669300347566605,
						-0.04024504125118255,
						-0.1943280249834061,
						-0.09635677188634872,
						-0.08495580404996871,
						0.02536090835928916,
						-0.1209569051861763,
						-0.09201250225305557,
						-0.274810254573822,
						-0.07032530009746551,
						0.1069059520959854,
						-0.04502519220113754,
						-0.09667868912220001,
						-0.142545223236084,
						-0.01338621415197849,
						-0.0267490204423666,
						-0.001450888579711318,
						-0.1238556355237961,
						-0.2639219760894775,
						-0.1742573827505112,
						-0.08983031660318374,
						-0.06923262029886245,
						-0.1112560033798218,
						-0.1463992744684219,
						-0.1758535653352737,
						-0.06349997967481613,
						0.03416955098509788,
						-0.02774872072041034,
						-0.10093804448843,
						-0.1137596592307091
					]
				},
				{
					"weights": [
						0.01314031239598989,
						-0.2866767346858978,
						-0.2618803083896637,
						-0.2040026783943176,
						0.3066774904727936,
						-0.07170920073986053,
						-0.09201700985431671,
						-0.1908436715602875,
						-0.08785632997751236,
						0.3683420717716217,
						0.0417788028717041,
						-0.1069815754890442,
						0.001683584996499121,
						-0.2423898726701736,
						0.3481186628341675,
						-0.006424900609999895,
						0.03068788349628448,
						-0.1486137062311172,
						0.08107053488492965,
						0.173148587346077,
						-0.1171649247407913,
						0.10479386895895,
						-0.1353036165237427,
						0.1154774352908134,
						0.05202213302254676,
						-0.00246537011116743,
						-0.1305628567934036,
						-0.2209080755710602,
						0.1425435543060303,
						-0.2245772927999496,
						-0.0833364799618721,
						-0.2670263648033142,
						-0.3260493576526642,
						-0.03409958630800247,
						0.05549409613013267
					]
				},
				{
					"weights": [
						-0.02756488136947155,
						-0.06910382211208343,
						0.05111505091190338,
						0.0336126908659935,
						-0.03219770267605781,
						-0.1216882467269897,
						-0.03422420099377632,
						0.1575446575880051,
						-0.06192407384514808,
						-0.231803372502327,
						-0.2634417414665222,
						-0.1069701462984085,
						0.06690101325511932,
						0.1126365065574646,
						-0.4103258848190308,
						-0.09054654091596603,
						-0.009142329916357994,
						0.1997602432966232,
						-0.1382046192884445,
						-0.3825493454933167,
						-0.1096983700990677,
						-0.03227429836988449,
						0.12483299523592,
						0.08668681979179382,
						-0.4707935452461243,
						-0.2884986996650696,
						-0.01673662848770618,
						0.1640908271074295,
						0.06750059872865676,
						-0.1838548481464386,
						-0.2465396076440811,
						-0.2142425775527954,
						-0.02982834726572036,
						-0.1939801424741745,
						-0.1464492082595825
					]
				},
				{
					"weights": [
						-0.3101768791675568,
						-0.1991136223077774,
						-0.1663996577262878,
						-0.2222352921962738,
						-0.1818976551294327,
						-0.1304947733879089,
						0.1188964322209358,
						0.08145742863416671,
						0.2472106665372849,
						-0.1621174514293671,
						-0.1511042863130569,
						-0.07231554388999939,
						-0.1969315409660339,
						0.4978219866752625,
						0.05820326879620552,
						-0.04714912176132202,
						-0.2392393797636032,
						-0.3590649962425232,
						-0.1596300154924393,
						0.05038834735751152,
						-0.01083184126764535,
						0.05285685509443283,
						-0.132350966334343,
						0.1034407615661621,
						0.185220792889595,
						0.1382035315036774,
						0.1198058575391769,
						0.1643196493387222,
						-0.2036882340908051,
						0.1716779470443726,
						-0.191360667347908,
						0.01917830295860767,
						0.09922367334365844,
						-0.4455145001411438,
						-0.4374776482582092
					]
				},
				{
					"weights": [
						0.05339623615145683,
						-0.1408084481954575,
						-0.123899981379509,
						-0.2267812192440033,
						-0.1705156862735748,
						-0.06484436988830566,
						-0.1169432625174522,
						-0.05089084804058075,
						-0.2581351399421692,
						0.0174978170543909,
						-0.03100276365876197,
						-0.2123847454786301,
						-0.03901735693216323,
						-0.2717501819133759,
						0.1103082075715065,
						0.1714989393949509,
						-0.1939679831266403,
						-0.2027878165245056,
						-0.106949657201767,
						-0.01642739586532115,
						0.08199508488178253,
						-0.0809297114610672,
						0.049308892339468,
						-0.2308131158351898,
						-0.1142124310135841,
						-0.04955530539155006,
						0.008497106842696666,
						-0.1636111438274384,
						0.1320746243000031,
						-0.08025535941123962,
						0.08287273347377777,
						0.1221985369920731,
						-0.1288262903690338,
						0.2622823417186737,
						-0.007800702471286058
					]
				},
				{
					"weights": [
						-0.1931361109018326,
						0.1024857982993126,
						0.02774931862950325,
						-0.1123212277889252,
						-0.2765933871269226,
						-0.03592580184340477,
						0.002203885000199079,
						-0.02338905073702335,
						0.02350144460797309,
						0.01423635054379701,
						-0.004450912121683359,
						-0.072644904255867,
						-0.08352650701999664,
						0.03532202541828155,
						-0.04312682151794433,
						0.1817926317453384,
						0.08555102348327636,
						-0.2783626019954681,
						-0.04013308137655258,
						-0.08960675448179245,
						0.1167241036891937,
						0.07989838719367981,
						0.03808261454105377,
						-0.1023179814219475,
						0.01726855151355266,
						0.05234027653932571,
						-0.1843165755271912,
						0.06464207917451858,
						-0.2111850827932358,
						0.225351095199585,
						-0.188871905207634,
						-0.1917107552289963,
						-0.2364126890897751,
						-0.2234809696674347,
						-0.3405754566192627
					]
				},
				{
					"weights": [
						-0.1613579988479614,
						0.2096132338047028,
						0.4049946367740631,
						0.2109742760658264,
						-0.05724861472845077,
						-0.1262409240007401,
						-0.07819820940494537,
						0.02207010611891746,
						-0.1717010736465454,
						-0.1034097820520401,
						-0.1126889288425446,
						-0.02887852862477302,
						-0.1079768240451813,
						-0.05276685953140258,
						-0.01599845290184021,
						-0.1002000942826271,
						-0.01873359642922878,
						-0.2453259080648422,
						-0.01992805302143096,
						-0.02649875544011592,
						0.04334203898906707,
						-0.05784278735518455,
						0.05304055660963058,
						0.2910666763782501,
						0.09044858068227767,
						0.01671624742448329,
						-0.1202300414443016,
						0.1337728500366211,
						0.08468984067440033,
						-0.07389004528522491,
						-0.1743719428777695,
						-0.3822402954101563,
						-0.2436910718679428,
						-0.2418098002672195,
						0.02680212818086147
					]
				},
				{
					"weights": [
						-0.3891035616397858,
						-0.1037275940179825,
						-0.005611580796539783,
						-0.2509996592998505,
						-0.3023975789546967,
						-0.05351820588111877,
						0.1539822518825531,
						-0.07253733277320861,
						0.05941668897867202,
						0.1731151789426804,
						-0.1203523501753807,
						-0.0855196937918663,
						-0.1713627278804779,
						0.3796984553337097,
						0.16172756254673,
						-0.2211891114711761,
						-0.3509619832038879,
						-0.3184065520763397,
						-0.129880353808403,
						0.06068479642271995,
						-0.1142537295818329,
						-0.1061738356947899,
						-0.1488937139511108,
						0.02923683635890483,
						0.1785158216953278,
						0.02786633558571338,
						0.2108989208936691,
						0.1765259802341461,
						0.05457964166998863,
						0.1445256322622299,
						-0.3438347578048706,
						0.3343208134174347,
						0.353911817073822,
						-0.2636246681213379,
						-0.3140371441841125
					]
				},
				{
					"weights": [
						-0.03491345793008804,
						0.1110716536641121,
						0.1793743669986725,
						0.1493782252073288,
						0.06834632158279418,
						-0.147418737411499,
						0.07197700440883636,
						-0.1570887416601181,
						-0.2981151342391968,
						-0.06962226331233978,
						-0.1404853314161301,
						0.1061985790729523,
						-0.1937166154384613,
						-0.2095120251178741,
						-0.1674245744943619,
						0.08499397337436676,
						-0.2995751202106476,
						-0.01404332369565963,
						-0.1585148274898529,
						-0.0944359004497528,
						0.09902209788560867,
						-0.2319329828023911,
						-0.03589373081922531,
						-0.2006682902574539,
						-0.09758304059505462,
						0.1718240976333618,
						-0.2288564592599869,
						-0.210186243057251,
						-0.0436013638973236,
						-0.00927312858402729,
						0.04931917414069175,
						-0.130234882235527,
						-0.1449120342731476,
						0.1081405729055405,
						0.2633748352527618
					]
				},
				{
					"weights": [
						0.1130660474300385,
						-0.2905333936214447,
						-0.3747472167015076,
						-0.2253438234329224,
						0.3057058751583099,
						-0.09791424870491027,
						0.001482088817283511,
						-0.07213860750198364,
						0.04707418754696846,
						0.1628024727106094,
						-0.02118821255862712,
						0.05674045905470848,
						-0.09821570664644241,
						0.1756604909896851,
						0.2860236167907715,
						-0.07261131703853607,
						0.09133622050285339,
						-0.1393347978591919,
						0.07108921557664871,
						0.1684349626302719,
						-0.002198307542130351,
						0.2231317162513733,
						-0.0598934032022953,
						0.04734043776988983,
						-0.2087963074445724,
						0.03783232718706131,
						-0.1297155618667603,
						-0.06828808784484863,
						0.05033857747912406,
						-0.2768473923206329,
						0.09823410958051681,
						-0.5593277215957642,
						-0.5768829584121704,
						-0.577669084072113,
						-0.2926898002624512
					]
				},
				{
					"weights": [
						0.05983729287981987,
						-0.1968354731798172,
						-0.3201635777950287,
						-0.1321569532155991,
						0.08486538380384445,
						-0.008782342076301574,
						0.0966186448931694,
						-0.1178716421127319,
						-0.1259753108024597,
						-0.002881131833419203,
						0.07594243437051773,
						0.04606327787041664,
						-0.1528536230325699,
						-0.05890480801463127,
						-0.005408530589193105,
						0.1249114796519279,
						0.1017723008990288,
						-0.2068642526865005,
						-0.0632975548505783,
						-0.08257597684860229,
						0.03958005458116531,
						-0.03360398486256599,
						-0.04358850046992301,
						-0.1947974860668182,
						-0.1224499940872192,
						-0.02771013230085372,
						-0.1224610507488251,
						-0.1133320927619934,
						-0.2870876491069794,
						0.07450412958860397,
						-0.08374632894992828,
						-0.09850772470235824,
						-0.2439994513988495,
						-0.2062712609767914,
						-0.2686386406421661
					]
				},
				{
					"weights": [
						-0.2261224985122681,
						0.1223504990339279,
						-0.04558851197361946,
						0.02660412341356277,
						0.0978047102689743,
						0.03686953708529472,
						-0.09793338924646377,
						-0.01667217910289764,
						-0.1198652237653732,
						-0.1682109087705612,
						0.008890670724213123,
						-0.09266917407512664,
						-0.08658864349126815,
						-0.1257102638483047,
						-0.3765489161014557,
						-0.179365336894989,
						-0.1263935267925262,
						0.04648609831929206,
						-0.06107861548662185,
						-0.1663655191659927,
						-0.1680459231138229,
						-0.129780113697052,
						-0.04632525146007537,
						-0.005076613277196884,
						-0.1430224031209946,
						-0.1613378524780273,
						-0.0401947870850563,
						-0.1203819364309311,
						-0.1139345392584801,
						0.08530668914318084,
						-0.06288402527570724,
						0.08642663061618804,
						-0.05273124948143959,
						0.08416850119829177,
						0.06398094445466995
					]
				},
				{
					"weights": [
						-0.1671705543994904,
						0.1269592344760895,
						0.2308917492628098,
						0.03625903651118278,
						0.0394371822476387,
						-0.181047186255455,
						-0.06259949505329132,
						0.06727705150842666,
						-0.19107885658741,
						0.1284858584403992,
						-0.2619896829128265,
						-0.08570598065853118,
						-0.2733272314071655,
						-0.09907130151987075,
						-0.03201294690370559,
						-0.2272975593805313,
						-0.1470046490430832,
						-0.01977181248366832,
						0.01921834610402584,
						-0.09571555256843566,
						-0.1753047555685043,
						-0.1658859848976135,
						-0.1812037080526352,
						-0.0753418281674385,
						0.1151345074176788,
						-0.1763849258422852,
						0.04144872352480888,
						-0.05714461579918861,
						-0.08188513666391372,
						0.007348939310759305,
						-0.3436681628227234,
						0.09351605176925659,
						0.1984087526798248,
						-0.07717524468898773,
						-0.086149163544178
					]
				},
				{
					"weights": [
						0.04448267444968223,
						-0.2263673394918442,
						-0.3185724318027496,
						-0.03950406983494758,
						0.003339326474815607,
						0.05985601991415023,
						-0.04671394824981689,
						-0.2273333072662354,
						0.0376114621758461,
						-0.1167949363589287,
						0.05912946537137031,
						0.008080020546913146,
						-0.03494184091687202,
						-0.07568442076444625,
						-0.05593175068497657,
						0.01875389367341995,
						0.0614398643374443,
						0.008904831483960151,
						-0.115408681333065,
						-0.02686567790806293,
						0.1057502701878548,
						-0.1627964526414871,
						-0.1134762316942215,
						-0.3551796972751617,
						-0.1537706851959229,
						-0.1009556353092194,
						-0.2174907028675079,
						-0.1388670355081558,
						-0.3107405602931976,
						-0.02401185780763626,
						0.06264954060316085,
						-0.07649022340774536,
						0.05621513724327087,
						-0.05414513871073722,
						-0.1222379878163338
					]
				},
				{
					"weights": [
						-0.1366304010152817,
						-0.0578927956521511,
						0.04739106073975563,
						-0.02761231176555156,
						-0.05978675931692123,
						0.1672439575195313,
						-0.1837303191423416,
						-0.1040199398994446,
						0.03553440049290657,
						-0.1032619625329971,
						0.07400447875261306,
						-0.0777401253581047,
						-0.1865176409482956,
						-0.1065773740410805,
						0.005222583189606666,
						0.07039256393909454,
						-0.07572459429502487,
						-0.1983591765165329,
						-0.2060108631849289,
						0.02384883724153041,
						0.1015055403113365,
						-0.1914907991886139,
						-0.02067067101597785,
						-0.1925115287303925,
						-0.1567688435316086,
						0.006435063667595386,
						-0.04759588092565536,
						0.002452629618346691,
						-0.2603166401386261,
						-0.1642167121171951,
						-0.2706617712974548,
						0.2135634124279022,
						0.1892654150724411,
						-0.08216968178749084,
						-0.086263008415699
					]
				},
				{
					"weights": [
						0.06330463290214538,
						-0.0994531437754631,
						-0.1537470668554306,
						-0.01641990430653095,
						-0.01467250287532806,
						0.1373157799243927,
						-0.1655136346817017,
						-0.2477193921804428,
						-0.2305846512317657,
						0.05813115090131759,
						0.1319358795881271,
						-0.2822327613830566,
						-0.1111957058310509,
						-0.3732664585113525,
						0.05507378652691841,
						0.1037559136748314,
						-0.05661135166883468,
						-0.01525307446718215,
						-0.2516071200370789,
						-0.04932883754372596,
						0.03569542616605758,
						-0.1076133772730827,
						-0.1273088753223419,
						-0.1853294521570206,
						-0.1594054251909256,
						-0.2075594514608383,
						-0.0165201686322689,
						-0.2228650748729706,
						-0.1079697906970978,
						-0.1256075650453568,
						0.125081479549408,
						0.28624427318573,
						0.1064121872186661,
						0.3576856255531311,
						0.1878878772258759
					]
				},
				{
					"weights": [
						-0.2083630263805389,
						0.03014329075813293,
						0.1329402923583984,
						0.1088676154613495,
						0.02340289950370788,
						0.050626240670681,
						-0.1004949882626534,
						-0.1528090089559555,
						-0.2379302233457565,
						0.04342545568943023,
						0.2530285716056824,
						-0.09298612922430038,
						0.01164836063981056,
						-0.3117230832576752,
						-0.1092821210622787,
						0.1323798000812531,
						0.04599591344594955,
						-0.1963116675615311,
						0.04815948009490966,
						-0.1785621643066406,
						0.06123368442058563,
						0.1270162910223007,
						0.02040867507457733,
						0.2553127408027649,
						-0.1396200507879257,
						0.1117547675967216,
						-0.02749753557145595,
						-0.01447067130357027,
						-0.07286944985389709,
						0.1427240073680878,
						-0.2108236700296402,
						-0.2817153334617615,
						-0.4399012625217438,
						-0.0650816261768341,
						0.0828813761472702
					]
				},
				{
					"weights": [
						-0.1758135259151459,
						0.02489694766700267,
						0.2579010426998138,
						0.1006887927651405,
						-0.1293392479419708,
						-0.01403912808746099,
						-0.04468276351690292,
						-0.04395046830177307,
						-0.06588325649499893,
						0.06779908388853073,
						-0.09819657355546951,
						-0.1929311603307724,
						-0.03266329690814018,
						-0.1145762875676155,
						0.1041710749268532,
						-0.02105720527470111,
						-0.2773069739341736,
						-0.2897866070270538,
						0.1172982677817345,
						-0.1293756067752838,
						0.06286484748125076,
						0.00973560381680727,
						-0.02227409929037094,
						0.2420115023851395,
						0.04953902587294578,
						-0.07232309132814407,
						0.0753282681107521,
						0.1397090703248978,
						-0.0006160336779430508,
						-0.1609621495008469,
						-0.3821556270122528,
						-0.05967794731259346,
						-0.06044450029730796,
						-0.008450847119092941,
						0.02109694294631481
					]
				},
				{
					"weights": [
						0.05842670053243637,
						-0.2442153990268707,
						-0.09965891391038894,
						-0.1241637617349625,
						0.03947489336133003,
						-0.0989195629954338,
						0.09203471988439559,
						-0.0781274139881134,
						-0.2030047178268433,
						-0.1433077901601791,
						-0.03758930042386055,
						-0.001942575792782008,
						0.2082198411226273,
						-0.1411872655153275,
						-0.4226362407207489,
						-0.07006663829088211,
						-0.2535602152347565,
						0.1665600091218948,
						-0.1330849230289459,
						-0.2768301069736481,
						-0.002759511349722743,
						-0.2585359811782837,
						-0.005666883662343025,
						-0.1198038086295128,
						-0.2533756494522095,
						-0.2405827790498734,
						-0.1123141944408417,
						0.01822824589908123,
						0.1648343950510025,
						-0.06898519396781921,
						0.05925196036696434,
						0.02933233417570591,
						0.0341343879699707,
						0.2268986701965332,
						0.08769940584897995
					]
				},
				{
					"weights": [
						-0.06901164352893829,
						0.07892230898141861,
						0.01502909231930971,
						-0.127527728676796,
						-0.2101758271455765,
						0.03900811076164245,
						-0.1152537614107132,
						0.1157962828874588,
						0.08137092739343643,
						-0.1800813227891922,
						-0.04412370175123214,
						-0.1453317552804947,
						-0.02891205623745918,
						0.07466842234134674,
						-0.2095055133104324,
						-0.1002253815531731,
						-0.04503250122070312,
						-0.1927208751440048,
						-0.1123347580432892,
						-0.1446068584918976,
						0.03684630617499351,
						-0.1875458955764771,
						-0.1767863929271698,
						-0.07422342151403427,
						0.01123617589473724,
						0.006622614338994026,
						0.0001993078185478225,
						0.1553895771503448,
						-0.05726512148976326,
						0.110877551138401,
						-0.3868163824081421,
						0.1564005613327026,
						0.2242806553840637,
						-0.09405343234539032,
						-0.4331812560558319
					]
				},
				{
					"weights": [
						0.2537142038345337,
						-0.2046342492103577,
						-0.4774034023284912,
						-0.2259588241577148,
						0.2694565057754517,
						0.06959761679172515,
						0.08516307920217514,
						-0.1964187473058701,
						0.2438285499811172,
						-0.01028756704181432,
						-0.088591068983078,
						0.06513921916484832,
						-0.1129764318466187,
						0.1339866667985916,
						0.01477352436631918,
						0.05594249442219734,
						0.2317567765712738,
						0.08277540653944015,
						-0.05532087385654449,
						0.03032674454152584,
						0.01385742146521806,
						0.1367743611335754,
						-0.1462066620588303,
						-0.4568986296653748,
						-0.475088506937027,
						-0.09335442632436752,
						-0.1282665580511093,
						-0.1744525283575058,
						-0.280716747045517,
						-0.2431277185678482,
						0.1637530326843262,
						-0.3549900352954865,
						-0.1610204875469208,
						-0.4300965666770935,
						-0.5236803293228149
					]
				},
				{
					"weights": [
						-0.03549829870462417,
						0.01465260051190853,
						-0.1283448189496994,
						-0.0006054484983906149,
						0.0638950765132904,
						-0.08166980743408203,
						0.08471237123012542,
						-0.1775719374418259,
						0.03674850240349769,
						-0.09680829942226409,
						-0.2227678894996643,
						0.06552376598119735,
						-0.2349668741226196,
						-0.03524886071681976,
						-0.1630888730287552,
						-0.1352283954620361,
						-0.05332845821976661,
						0.07240045815706253,
						-0.0996728166937828,
						-0.03965909034013748,
						-0.1516622304916382,
						-0.1553374379873276,
						-0.0531989187002182,
						-0.2038024216890335,
						-0.06412173062562942,
						-0.05787129700183868,
						-0.1003919690847397,
						-0.2284002006053925,
						-0.3037570714950562,
						0.0002071009366773068,
						0.1815520972013474,
						-0.06486686319112777,
						0.190909281373024,
						-0.1952673494815826,
						0.05333488807082176
					]
				},
				{
					"weights": [
						-0.0005592419765889644,
						0.2455516308546066,
						0.3732228875160217,
						0.001495671342127025,
						0.01522207260131835,
						-0.1691190451383591,
						0.002582614542916417,
						0.1103601530194283,
						-0.2028246223926544,
						-0.1294410228729248,
						0.01902082748711109,
						0.01303676050156354,
						0.03172633051872253,
						-0.197398766875267,
						-0.1391529142856598,
						-0.02888700552284717,
						-0.1721878796815872,
						0.02138914540410041,
						0.1051232442259789,
						-0.1412692666053772,
						-0.08697929978370666,
						-0.2807364463806152,
						0.1469775289297104,
						0.1770066916942596,
						0.08146040886640548,
						0.1123749166727066,
						-0.4108901917934418,
						0.06698080152273178,
						0.1043057665228844,
						0.1564957499504089,
						-0.0183765310794115,
						-0.4031474590301514,
						-0.305688202381134,
						0.01749519072473049,
						0.1284644603729248
					]
				},
				{
					"weights": [
						-0.2527085244655609,
						-0.1904591172933578,
						-0.2087751626968384,
						-0.0851425901055336,
						-0.1230635493993759,
						0.09562049061059951,
						0.04283839091658592,
						0.0477670170366764,
						-0.01676249504089355,
						-0.1593174785375595,
						-0.01278078742325305,
						0.02043645642697811,
						0.111718125641346,
						0.01297313533723354,
						-0.21786929666996,
						-0.04319114983081817,
						0.1879677772521973,
						-0.01039260998368263,
						-0.098604716360569,
						-0.1578065752983093,
						-0.09714804589748382,
						0.07621160894632339,
						-0.1169972643256187,
						-0.2639623582363129,
						-0.2667122483253479,
						-0.2519577443599701,
						0.1033982485532761,
						0.09932737797498703,
						-0.4074403643608093,
						0.06901078671216964,
						-0.2780918776988983,
						0.05834707245230674,
						0.08067571371793746,
						-0.05603457614779472,
						-0.3837314546108246
					]
				},
				{
					"weights": [
						-0.1903154253959656,
						0.0272355917841196,
						0.008072342723608016,
						-0.09949925541877746,
						-0.04375525563955307,
						0.2221280336380005,
						-0.1887458562850952,
						0.08324155211448669,
						0.1340003460645676,
						-0.3314873576164246,
						0.04193386062979698,
						-0.1476083248853683,
						-0.02493713423609733,
						0.03144611045718193,
						-0.04446561262011528,
						0.1615678817033768,
						0.1242037117481232,
						-0.1515818238258362,
						-0.1641353964805603,
						-0.04709091410040855,
						0.1766001284122467,
						-0.08219177275896072,
						-0.1046173945069313,
						-0.0736808180809021,
						-0.1044077128171921,
						-0.1753364503383636,
						-0.06529619544744491,
						0.08501510322093963,
						-0.2998950779438019,
						0.1417160481214523,
						-0.3832968473434448,
						0.08623347431421279,
						0.2622439861297607,
						-0.2059796005487442,
						-0.429903507232666
					]
				},
				{
					"weights": [
						-0.09673041850328445,
						-0.1223321780562401,
						-0.1901911795139313,
						-0.1808475703001022,
						-0.2405374497175217,
						0.04884746298193931,
						0.186321809887886,
						0.05441096797585487,
						-0.02556129172444343,
						0.1306608468294144,
						0.1014006435871124,
						0.007023560814559459,
						0.08214480429887771,
						-0.05254001170396804,
						-0.08460482209920883,
						0.0271457303315401,
						-0.1974856704473495,
						-0.06677194684743881,
						-0.1515441685914993,
						-0.1887100636959076,
						-0.06321680545806884,
						-0.004188037943094968,
						0.1186393871903419,
						-0.2378874719142914,
						0.08595840632915496,
						-0.06137564033269882,
						-0.2357517927885056,
						0.0615197941660881,
						-0.1596393883228302,
						0.347920149564743,
						0.05077607929706573,
						-0.2349062412977219,
						-0.1984511017799377,
						0.01827805116772651,
						-0.4181085824966431
					]
				},
				{
					"weights": [
						-0.2824340462684631,
						-0.07093296945095062,
						-0.05862582847476005,
						-0.1256603598594666,
						-0.02251987159252166,
						0.04916303604841232,
						-0.1199707537889481,
						0.1500013321638107,
						0.05836877971887588,
						-0.03326775878667831,
						-0.08999527245759964,
						-0.133049488067627,
						-0.1107258871197701,
						-0.1049042120575905,
						-0.07434213161468505,
						-0.04150368273258209,
						-0.1105546727776527,
						-0.1170055344700813,
						0.03901255875825882,
						-0.1084693297743797,
						0.04837783053517341,
						0.07997096329927444,
						0.05722270533442497,
						-0.1046753525733948,
						-0.03833823651075363,
						-0.1780100911855698,
						0.07736919820308685,
						0.1925341635942459,
						-0.1957741230726242,
						0.01511736772954464,
						-0.5860750675201416,
						-0.002748060505837202,
						-0.00909200869500637,
						-0.2685723602771759,
						-0.2925659716129303
					]
				},
				{
					"weights": [
						0.3203976452350616,
						-0.4806337356567383,
						-0.697951078414917,
						-0.2282823324203491,
						0.1042084842920303,
						0.001603730022907257,
						0.1096860617399216,
						-0.3244461417198181,
						0.1714851558208466,
						0.2891213893890381,
						0.03566134348511695,
						0.0629095509648323,
						0.0232129693031311,
						-0.0452030561864376,
						0.3519387543201447,
						-0.03731247037649154,
						0.07737240195274353,
						0.07080449908971786,
						-0.1955536603927612,
						0.2078421264886856,
						-0.1378961950540543,
						-0.0263859424740076,
						-0.2171826958656311,
						-0.6204343438148499,
						-0.1912899017333984,
						-0.02113274298608303,
						-0.2228470593690872,
						-0.1838098466396332,
						-0.2909594774246216,
						-0.2549511194229126,
						0.2485168278217316,
						-0.0160066895186901,
						0.02957973070442676,
						-0.07587437331676483,
						-0.3240746855735779
					]
				},
				{
					"weights": [
						0.001480532577261328,
						-0.0253094658255577,
						0.02978831157088279,
						-0.09537003934383392,
						0.0565807782113552,
						-0.09327583014965057,
						-0.1122662574052811,
						0.05714502185583114,
						-0.04723601043224334,
						-0.009758191183209419,
						-0.1793790012598038,
						-0.050497367978096,
						-0.1357835382223129,
						-0.1443921774625778,
						-0.009235968813300132,
						-0.1275272369384766,
						-0.08995100855827331,
						0.03577420115470886,
						-0.06530281901359558,
						-0.06674914062023162,
						-0.1005967557430267,
						-0.07796843349933624,
						0.009944725781679153,
						-0.2450253814458847,
						-0.1277199387550354,
						-0.0694219022989273,
						-0.1063589230179787,
						-0.09942623227834701,
						-0.374091774225235,
						0.02288446761667728,
						-0.1811308413743973,
						-0.0733623132109642,
						0.03334118425846099,
						-0.2036834806203842,
						-0.1886521726846695
					]
				},
				{
					"weights": [
						-0.1767194867134094,
						-0.07845082134008407,
						-0.06828825920820236,
						-0.02581172809004783,
						-0.0376235544681549,
						-0.1341206431388855,
						0.1317685693502426,
						-0.02149310149252414,
						-0.05938590317964553,
						-0.1865784525871277,
						-0.2752380669116974,
						0.0232086144387722,
						-0.06174296140670776,
						-0.1029640138149261,
						-0.244916096329689,
						-0.07816140353679657,
						-0.1076255515217781,
						-0.06433618813753128,
						-0.0306919477880001,
						-0.185154139995575,
						-0.1031834185123444,
						-0.04404152929782867,
						-0.03320056200027465,
						-0.1859267354011536,
						-0.2338127046823502,
						-0.01182166114449501,
						0.03576579317450523,
						-0.01950251311063766,
						-0.2398103028535843,
						-0.01873677223920822,
						0.02309677004814147,
						-0.1794590801000595,
						-0.1086285039782524,
						-0.1808381378650665,
						-0.01510877814143896
					]
				},
				{
					"weights": [
						0.1697236895561218,
						-0.100207045674324,
						-0.07910724729299545,
						-0.09331774711608886,
						0.04342636838555336,
						-0.06234845146536827,
						-0.00304378499276936,
						-0.09148895740509033,
						-0.01510677020996809,
						0.05770237743854522,
						-0.09445638209581375,
						-0.2176711112260818,
						-0.1854661256074905,
						-0.02867898344993591,
						0.2224309593439102,
						0.05971302464604377,
						-0.2964715361595154,
						-0.0036314248573035,
						-0.2130161672830582,
						0.204127699136734,
						-0.09191804379224777,
						-0.2191257029771805,
						-0.1136565357446671,
						-0.09617297351360321,
						-0.03547143191099166,
						-0.08015475422143936,
						-0.01213848404586315,
						-0.1460637599229813,
						-0.0585540123283863,
						-0.3137759864330292,
						-0.05234467238187789,
						-0.1169850528240204,
						0.02223982103168964,
						-0.1160499453544617,
						-0.06682176887989044
					]
				},
				{
					"weights": [
						0.08454034477472305,
						-0.3194230198860168,
						-0.3150073885917664,
						-0.1835573762655258,
						0.009010136127471923,
						-0.02870578877627849,
						0.087423637509346,
						-0.04779234901070594,
						-0.1994916796684265,
						0.0372411236166954,
						-0.1342930048704147,
						0.01502409018576145,
						-0.1526431441307068,
						-0.1624497771263123,
						-0.07367083430290222,
						-0.08255419880151748,
						0.06357400119304657,
						0.1402771174907684,
						0.02897818200290203,
						-0.03415898606181144,
						-0.003417343366891145,
						-0.001792759634554386,
						0.004268902353942394,
						-0.4025773108005524,
						-0.2535931169986725,
						-0.1210121363401413,
						-0.09899030625820159,
						-0.1337530463933945,
						-0.1924268454313278,
						-0.1447900831699371,
						0.03205251321196556,
						0.04269818589091301,
						-0.1346136778593063,
						-0.1001380383968353,
						-0.2416327595710754
					]
				},
				{
					"weights": [
						-0.1907400488853455,
						0.05789664015173912,
						0.1800418347120285,
						0.1321035772562027,
						-0.2650939226150513,
						-0.01765551418066024,
						-0.01209352258592844,
						-0.03726080805063247,
						-0.1930420398712158,
						-0.04572528973221778,
						-0.06305071711540222,
						-0.148172527551651,
						-0.1234538033604622,
						0.02072546817362308,
						-0.2896697521209717,
						-0.07538248598575592,
						-0.1857765316963196,
						-0.03470467776060104,
						-0.06691223382949829,
						-0.2328428775072098,
						-0.06761503219604492,
						-0.2470279932022095,
						-0.09349327534437179,
						-0.0996820330619812,
						0.02213304489850997,
						0.05025816336274147,
						-0.01028780452907085,
						-0.09811843186616897,
						-0.05889498442411422,
						0.2714388966560364,
						-0.05683594942092895,
						0.3245229721069336,
						0.2361551225185394,
						0.122345432639122,
						0.06340737640857696
					]
				},
				{
					"weights": [
						-0.1419252753257751,
						-0.105450838804245,
						-0.267042338848114,
						0.0382961593568325,
						-0.01711927726864814,
						0.01262046489864587,
						-0.2463012039661407,
						-0.2438507527112961,
						-0.1705316156148911,
						0.3915466368198395,
						0.152419239282608,
						-0.4595354795455933,
						-0.2629521191120148,
						-0.02776991203427314,
						0.4150282144546509,
						0.03394356369972229,
						0.08934394270181655,
						-0.1812703460454941,
						0.06782266497611999,
						0.1650390028953552,
						-0.02557890675961971,
						0.08243507146835327,
						-0.3662837743759155,
						0.04592399299144744,
						0.06366688013076782,
						-0.0777956023812294,
						0.1455415785312653,
						-0.1964108645915985,
						-0.1783806681632996,
						-0.1835545897483826,
						-0.08608334511518478,
						0.403106153011322,
						0.29828080534935,
						-0.01854042708873748,
						0.07358654588460922
					]
				},
				{
					"weights": [
						0.07537548243999481,
						-0.297941267490387,
						-0.1868396103382111,
						-0.1383968889713287,
						0.1819097250699997,
						0.07049114257097244,
						-0.1223184391856194,
						-0.1771087646484375,
						0.02851941995322704,
						-0.04547109082341194,
						-0.07076222449541091,
						-0.1515615284442902,
						-0.07242564111948013,
						-0.1008350029587746,
						-0.1034407317638397,
						0.04050891101360321,
						0.1898082941770554,
						-0.1485951840877533,
						0.03218214958906173,
						0.09103987365961074,
						-0.05847704410552978,
						-0.0777517482638359,
						-0.009605932980775833,
						-0.03787533193826675,
						-0.3026193082332611,
						0.03908058255910873,
						-0.1110546439886093,
						-0.0314449593424797,
						-0.07999629527330398,
						-0.08037243038415908,
						-0.205950066447258,
						-0.137957900762558,
						-0.1332916021347046,
						-0.3439473509788513,
						-0.2249440550804138
					]
				},
				{
					"weights": [
						-0.1283594965934753,
						0.03930738195776939,
						0.2362562119960785,
						0.1089968308806419,
						-0.1074470728635788,
						-0.08534645289182663,
						-0.2266866862773895,
						-0.04932909831404686,
						-0.4186762869358063,
						0.1850284337997437,
						-0.1056017354130745,
						-0.1496333330869675,
						-0.1188094094395638,
						-0.3216813802719116,
						0.03433693572878837,
						-0.06008251383900642,
						-0.3163605332374573,
						-0.07073622941970825,
						-0.1261834502220154,
						0.01709599606692791,
						0.04491914063692092,
						-0.182040274143219,
						-0.04813241586089134,
						-0.1508571952581406,
						0.1121283918619156,
						0.1060766503214836,
						-0.1216243728995323,
						-0.007554839830845594,
						0.2580401301383972,
						-0.05287722870707511,
						-0.05768773332238197,
						0.2894989550113678,
						-0.009652798995375633,
						0.3504752218723297,
						0.4298398792743683
					]
				},
				{
					"weights": [
						-0.185874417424202,
						0.0658646672964096,
						0.1282643973827362,
						0.02372015453875064,
						-0.3289772272109985,
						-0.06843474507331848,
						0.0363670215010643,
						0.0965869054198265,
						0.06257546693086624,
						-0.3165541589260101,
						0.02079289965331554,
						-0.06857626140117645,
						-0.02117117308080196,
						-0.02136689610779285,
						0.05344552174210548,
						-0.04303149878978729,
						-0.1050723716616631,
						-0.2968235015869141,
						0.03619427606463432,
						0.05990958586335182,
						0.0980553850531578,
						-0.1150512173771858,
						-0.1138564944267273,
						0.01196820195764303,
						0.2200143337249756,
						0.0355786420404911,
						-0.2479279935359955,
						-0.03342323750257492,
						-0.1641298532485962,
						0.168274849653244,
						-0.1790276169776917,
						-0.1042110919952393,
						0.08076398819684982,
						-0.2072255909442902,
						-0.1243552416563034
					]
				},
				{
					"weights": [
						-0.04766630753874778,
						-0.2631635367870331,
						-0.3277192115783691,
						-0.08388637006282806,
						-0.03379082307219505,
						0.01751122623682022,
						-0.05048536136746406,
						-0.08376751095056533,
						-0.03629805892705917,
						0.1637512296438217,
						-0.004754172172397375,
						-0.1744193434715271,
						-0.002793698571622371,
						-0.0977615863084793,
						-0.1671284884214401,
						-0.03678625077009201,
						-0.06968849152326583,
						0.03055477887392044,
						-0.2187665700912476,
						-0.04587879404425621,
						-0.1494023054838181,
						-0.1386831700801849,
						-0.1800456494092941,
						-0.09064613282680511,
						-0.1697656661272049,
						-0.2590034902095795,
						0.07488851249217987,
						-0.007477765437215566,
						-0.03810376301407814,
						-0.02355309203267097,
						-0.1933835595846176,
						0.1905530691146851,
						0.1529565155506134,
						-0.01115864794701337,
						-0.2264611124992371
					]
				},
				{
					"weights": [
						-0.1050227284431458,
						-0.1321693807840347,
						0.002275906736031174,
						-0.03058435395359993,
						-0.1265923976898193,
						-0.05411719530820846,
						0.1554564982652664,
						-0.02439193800091743,
						0.02721280418336391,
						-0.1112548559904099,
						-0.01485622860491275,
						0.1324571669101715,
						-0.1482294797897339,
						0.01199725177139043,
						0.1097883731126785,
						-0.03534036129713058,
						-0.08088477700948715,
						-0.0305806528776884,
						-0.01913030073046684,
						-0.06810681521892547,
						-0.1453492790460587,
						-0.06742060184478759,
						-0.08150260895490646,
						-0.2733979523181915,
						-0.008575786836445331,
						-0.1502886861562729,
						-0.04037130624055862,
						0.0436878427863121,
						-0.3566505312919617,
						0.2072282284498215,
						-0.180922731757164,
						-0.1018512099981308,
						0.08458964526653289,
						-0.3737436830997467,
						-0.3861847817897797
					]
				},
				{
					"weights": [
						0.3463523685932159,
						-0.4025115668773651,
						-0.5134740471839905,
						-0.4151276051998138,
						-0.0880822017788887,
						0.1245482861995697,
						-0.2181869149208069,
						-0.2184036523103714,
						0.07516983151435852,
						0.4383355677127838,
						0.275484174489975,
						-0.1360998451709747,
						0.03223153576254844,
						-0.2851338982582092,
						0.4257811009883881,
						0.1537435203790665,
						-0.1265541166067123,
						-0.2548706531524658,
						-0.01336600352078676,
						0.1696514338254929,
